100 100
king 0.18513294 0.54190093 0.87294585 0.7322249 0.8065612 0.6587834 0.69227654 0.84919566 0.249668 0.48942497 0.22120944 0.98766804 0.9440593 0.03942681 0.70557517 0.9252483 0.18057534 0.56794524 0.9154883 0.033945978 0.69742024 0.297349 0.9243962 0.97105825 0.9442665 0.47421423 0.86204267 0.8445494 0.31910047 0.8289155 0.037007634 0.5962699 0.23000884 0.12056688 0.0769532 0.69628876 0.33987495 0.7247668 0.065356344 0.31529033 0.5394913 0.79072315 0.3187525 0.6258914 0.88597775 0.6158632 0.23295948 0.024400782 0.8700989 0.02126941 0.8747017 0.52893716 0.9390677 0.79878324 0.9979341 0.35071182 0.7671883 0.40193093 0.47987562 0.6275055 0.87367713 0.9840835 0.7682734 0.41776678 0.421357 0.7375823 0.23877715 0.11047411 0.35462216 0.287239 0.29630813 0.23360775 0.04209319 0.017873935 0.9877224 0.42777315 0.38432664 0.67964727 0.21825388 0.9499612 0.786345 0.089411005 0.41758078 0.8791183 0.944732 0.4674015 0.61341137 0.16703394 0.9911686 0.2316717 0.9427318 0.64964664 0.60773677 0.5126885 0.23066981 0.17652804 0.22048621 0.18643826 0.77958447 0.35012525
queen 0.057842676 0.9691026 0.8837859 0.92775226 0.9949078 0.17389525 0.39624202 0.7582385 0.6960206 0.1538959 0.81583315 0.22444057 0.22381762 0.53697443 0.5929399 0.58008623 0.091486834 0.87746084 0.26560006 0.12951492 0.8887481 0.9556515 0.8621276 0.8095161 0.65524197 0.55085737 0.08698676 0.40845323 0.37268853 0.2597538 0.72342014 0.49587575 0.081046216 0.22018321 0.6832588 0.07613086 0.8512069 0.4951465 0.4805866 0.59240776 0.824681 0.3478092 0.6780161 0.56573194 0.26702827 0.87863 0.79742604 0.65845186 0.8505817 0.8672942 0.708363 0.8370133 0.69747144 0.6801408 0.6186114 0.75271666 0.1586051 0.88087076 0.8718435 0.029247284 0.82581675 0.12886986 0.33511886 0.7435083 0.1607599 0.817967 0.8321342 0.50746775 0.0063858717 0.28703815 0.6169269 0.98118615 0.6318135 0.2598036 0.6340057 0.53998536 0.7798454 0.10698064 0.76102793 0.54126656 0.962992 0.34187216 0.6326219 0.9320281 0.10250973 0.9372285 0.6878857 0.06783706 0.30096358 0.7081721 0.0673506 0.5821705 0.34588307 0.62091553 0.045742035 0.8715368 0.973489 0.96887785 0.74965185 0.13008624
man 0.7582632 0.024586916 0.022123551 0.32361022 0.4886432 0.77040744 0.68329537 0.4459027 0.27362666 0.9971245 0.42618132 0.45138702 0.16362382 0.7948095 0.69368225 0.22076961 0.08238105 0.6804993 0.6545112 0.27325952 0.95086354 0.1510579 0.4323348 0.9436159 0.41972733 0.63852596 0.3975944 0.2742152 0.9839777 0.409334 0.8940992 0.2299546 0.21310471 0.031134082 0.6516668 0.36852634 0.86435825 0.47320992 0.9681934 0.18552552 0.8686232 0.77659684 0.7709218 0.84478325 0.761024 0.62622035 0.13124488 0.03252618 0.92084783 0.61665034 0.7965373 0.48152235 0.11730819 0.12518579 0.6855653 0.4303059 0.20052473 0.49159455 0.06420894 0.5819714 0.2689934 0.7975591 0.31036195 0.45522016 0.01162054 0.07244689 0.39249355 0.47993883 0.6000205 0.29166257 0.6949819 0.8601224 0.77985096 0.039618824 0.48050696 0.10493018 0.24204502 0.98666257 0.14249554 0.49888816 0.6181557 0.702465 0.5596487 0.009770848 0.32646132 0.51771164 0.0878665 0.35062695 0.03320311 0.078578494 0.39692327 0.13271575 0.5675408 0.689465 0.8005867 0.20015025 0.16748258 0.10456784 0.63643026 0.70647573
woman 0.031586144 0.93621224 0.051971283 0.54129636 0.7090605 0.8709691 0.71408695 0.80172807 0.33945018 0.8148251 0.08011485 0.89481664 0.5475924 0.81729776 0.45231828 0.6435777 0.52640265 0.7315895 0.081629984 0.060352083 0.24710323 0.15954468 0.87178355 0.21921399 0.97586524 0.3368958 0.18211791 0.7896985 0.6587078 0.4981957 0.55536354 0.7192018 0.22845474 0.9963339 0.97479314 0.6503257 0.19954245 0.68022823 0.072198406 0.030652503 0.2576829 0.46262297 0.8682725 0.7271691 0.74270654 0.42549333 0.345935 0.37103876 0.98764956 0.04010919 0.8670315 0.5786754 0.4386154 0.72525764 0.48666894 0.8734232 0.9007019 0.42172092 0.27682778 0.5923503 0.91236335 0.21066219 0.6229666 0.6315602 0.73311305 0.13156769 0.71582496 0.9090325 0.1796831 0.23754333 0.9713951 0.18097696 0.8543851 0.49227786 0.24723108 0.8707499 0.44530526 0.51481736 0.35923338 0.5929509 0.16352387 0.39108154 0.9694123 0.25813344 0.6567367 0.32519007 0.77347314 0.13087367 0.96982104 0.45378953 0.23605046 0.073496744 0.1697579 0.51977396 0.33700317 0.82888335 0.43088752 0.24871427 0.617145 0.7067772
child 0.16704191 0.16761921 0.036671426 0.73640203 0.66380453 0.47463086 0.84417045 0.80567014 0.5853544 0.8682713 0.20584121 0.11191962 0.2697496 0.057086855 0.53116953 0.9366057 0.03934354 0.12210991 0.45219904 0.933875 0.31615612 0.5072348 0.041572858 0.1483432 0.98663014 0.9651187 0.004939981 0.9518118 0.6391199 0.8679183 0.45473987 0.51559603 0.48884657 0.6668643 0.13965125 0.02997359 0.30792993 0.70468074 0.20185345 0.6734324 0.96991205 0.09390072 0.6726021 0.44375023 0.86814225 0.17714979 0.69262594 0.8381153 0.94461423 0.68324804 0.49717477 0.61784726 0.868905 0.57060975 0.030387059 0.9309487 0.68952674 0.6765134 0.21567515 0.6588855 0.3938644 0.65123296 0.10659303 0.6578453 0.9994137 0.04821204 0.97717416 0.40690795 0.87075347 0.78238547 0.56701624 0.7384492 0.87851554 0.40414032 0.32703316 0.66759336 0.80784595 0.7622851 0.79781365 0.43558332 0.8178342 0.12020905 0.5444891 0.0057586604 0.32458583 0.36646155 0.3961727 0.69546723 0.3885581 0.44869363 0.23754413 0.3732518 0.22726963 0.07319593 0.60344857 0.6682128 0.6194903 0.46349403 0.37978578 0.86333364
family 0.5190818 0.4791819 0.025642065 0.34124783 0.38019562 0.39882278 0.58017236 0.53360254 0.6079051 0.7648833 0.8129857 0.7181231 0.95552367 0.018232582 0.19577798 0.007562875 0.6474747 0.8980305 0.24348229 0.92703456 0.06026739 0.934436 0.3516227 0.10142083 0.48587176 0.25677657 0.2848729 0.30728996 0.8030259 0.53916126 0.3113077 0.6103338 0.7161507 0.272624 0.4135491 0.1218861 0.18114935 0.68111783 0.18143834 0.5251634 0.70904624 0.106876925 0.56731224 0.25656277 0.96292686 0.48354566 0.80599254 0.55022657 0.043412533 0.63315135 0.9514033 0.6016118 0.81918883 0.8842065 0.22807977 0.21204484 0.610981 0.41102847 0.8398613 0.9000231 0.3534214 0.23687056 0.7805255 0.27480602 0.8226143 0.42373824 0.6675499 0.095535316 0.62385935 0.45176768 0.58660847 0.16801421 0.73687375 0.8627971 0.2167398 0.095714554 0.023638586 0.6419715 0.60709405 0.54669744 0.2319471 0.390906 0.59447634 0.49676687 0.9877855 0.13643976 0.69514453 0.40431878 0.42819962 0.7175978 0.69243616 0.991256 0.12839429 0.10410965 0.7243388 0.5783869 0.27416065 0.07941937 0.08565825 0.89419085
city 0.19186732 0.32337156 0.2266564 0.3549963 0.06942384 0.5190598 0.067612566 0.8003565 0.23371208 0.54001194 0.8800791 0.65087736 0.5329578 0.32433376 0.3330019 0.66948694 0.9941394 0.6618392 0.5577834 0.7306505 0.4652056 0.060142342 0.5622968 0.95762527 0.17530294 0.6900049 0.2009337 0.5358277 0.09667645 0.45037094 0.75616336 0.34757152 0.66491175 0.79545 0.92717785 0.23464209 0.39931592 0.15241602 0.9924835 0.92700094 0.5399571 0.84203327 0.520958 0.6235857 0.08912443 0.7552704 0.12771349 0.8260676 0.7820281 0.7087447 0.03616038 0.30312836 0.26311257 0.36013642 0.087642744 0.93695784 0.55380225 0.30552432 0.3969815 0.44720253 0.60059434 0.5156794 0.919392 0.49696347 0.992158 0.85142493 0.20851052 0.9305952 0.1163664 0.8174497 0.38062328 0.87797433 0.8680567 0.8059254 0.7900304 0.30467913 0.08091928 0.40298018 0.17352451 0.6949511 0.34609973 0.9756102 0.6409721 0.82248056 0.13252467 0.8620145 0.9227572 0.48706192 0.6062529 0.7648098 0.17483863 0.5025661 0.398663 0.14637399 0.36753443 0.068172306 0.025811907 0.13516629 0.9631151 0.54952955
country 0.96582216 0.4324979 0.31181613 0.50614184 0.4395117 0.105664685 0.64082634 0.21603818 0.61958796 0.6502011 0.15202485 0.061349627 0.7807616 0.45980042 0.058163796 0.9948663 0.05778056 0.6950352 0.98367894 0.2391801 0.14224938 0.12138494 0.30327514 0.10104581 0.6921613 0.062291797 0.5094221 0.9966968 0.81397027 0.6152194 0.3062536 0.6238958 0.52704144 0.4260834 0.13071038 0.8866042 0.44978464 0.19462252 0.36775935 0.41412976 0.8275379 0.7336144 0.7693049 0.011031264 0.416154 0.48134416 0.019192277 0.25981322 0.76028985 0.13710971 0.53531015 0.21520187 0.012120775 0.24120146 0.97587377 0.8015371 0.95957667 0.48785403 0.1097362 0.5479595 0.45437732 0.8443571 0.09808258 0.48824114 0.15004866 0.32467592 0.7373571 0.47601813 0.3758883 0.39447626 0.45944676 0.78501654 0.8920847 0.95533466 0.7869034 0.3154069 0.68813473 0.43760312 0.25467062 0.8408716 0.03842635 0.901762 0.46147746 0.6372015 0.6593539 0.89511776 0.6366697 0.61393356 0.06665204 0.518408 0.150169 0.7374338 0.51222193 0.68022776 0.0416729 0.08479202 0.7163234 0.07208434 0.07125673 0.012108475
world 0.9565014 0.73750836 0.3532514 0.29653558 0.34970322 0.77465355 0.66137064 0.18519557 0.17410934 0.09839565 0.6603027 0.76437265 0.26504642 0.02094496 0.08217167 0.96786004 0.2954448 0.76922315 0.6246636 0.38193965 0.20568727 0.121386416 0.61501294 0.77463377 0.64390427 0.5303021 0.041951224 0.96848875 0.7987142 0.29282203 0.97997034 0.60188156 0.5824227 0.74807316 0.8117698 0.6564786 0.12809575 0.3382675 0.92808366 0.22461562 0.37216702 0.43207687 0.439405 0.6129396 0.94307584 0.2406927 0.12150138 0.19747049 0.8869249 0.6458108 0.2859068 0.81594694 0.86136997 0.84651434 0.91892654 0.25224102 0.75504196 0.4605395 0.8419986 0.72849065 0.7764475 0.65616184 0.17742877 0.5450269 0.98466974 0.93738806 0.043173734 0.16481481 0.13172877 0.7259799 0.8177853 0.21351136 0.5058527 0.840703 0.73280156 0.5422372 0.5903477 0.50836056 0.29754844 0.565022 0.68888533 0.8733229 0.6362913 0.7611215 0.16007164 0.46155748 0.009331619 0.24667886 0.7264617 0.99180996 0.0991781 0.40149432 0.80007094 0.20403564 0.55508494 0.73307127 0.61598545 0.18802473 0.35538456 0.7837918
universe 0.5542265 0.0052296137 0.76099074 0.035311356 0.7457338 0.20248055 0.9580735 0.36794075 0.32693163 0.14888805 0.30560422 0.87665075 0.9963343 0.36830953 0.44861063 0.72207093 0.8861958 0.59304434 0.3915257 0.41262186 0.69561815 0.0032182636 0.6195893 0.355493 0.7941973 0.09299064 0.58820224 0.4809729 0.6423255 0.06485359 0.5799838 0.5614846 0.5606601 0.6034877 0.67646796 0.804989 0.26982072 0.8250494 0.49825567 0.07705828 0.058550928 0.33423832 0.78489697 0.70768094 0.788615 0.5172691 0.440199 0.14745253 0.32819274 0.43401936 0.08860043 0.22061196 0.5982253 0.7356631 0.9983475 0.93311334 0.6425652 0.42124805 0.63617736 0.7856516 0.11833619 0.4099049 0.83980227 0.38383296 0.5718723 0.5877694 0.18447626 0.36223543 0.33451128 0.026196709 0.024191763 0.83169705 0.2730708 0.51807874 0.29872558 0.94067925 0.25929675 0.4296568 0.87273026 0.84193355 0.18610142 0.8026433 0.4581869 0.48296887 0.13347997 0.08060151 0.7279393 0.49646115 0.4368507 0.7295082 0.7655129 0.15890817 0.61022514 0.13535409 0.7513751 0.6569552 0.9566146 0.068958014 0.05705472 0.28218707
science 0.2617057 0.2469788 0.9062546 0.2495462 0.27194974 0.7593983 0.44973984 0.77671057 0.06536616 0.48757118 0.0336136 0.06265321 0.90643746 0.13924538 0.5324207 0.4110956 0.34734333 0.8998333 0.021823397 0.6637897 0.96339446 0.5601682 0.9368225 0.05225788 0.41879332 0.2601578 0.73082095 0.9812971 0.25653008 0.6541746 0.19809763 0.56533027 0.46393248 0.9720053 0.60852724 0.34950638 0.114095785 0.15124683 0.22531693 0.25096667 0.85061604 0.5612228 0.5233909 0.11476887 0.86013967 0.7228143 0.06766836 0.7078351 0.5435382 0.081725344 0.45830065 0.4846963 0.16577454 0.94569814 0.84997535 0.6690223 0.46229556 0.41176555 0.65097344 0.54543185 0.062273107 0.5125027 0.80640364 0.45923987 0.05195658 0.7862782 0.20136379 0.25862083 0.16470635 0.33021507 0.7567515 0.5193859 0.20488128 0.8778301 0.87958187 0.8705784 0.2387962 0.45123935 0.98498964 0.7720125 0.02716742 0.06520459 0.46393138 0.9092202 0.5387018 0.4978125 0.1054737 0.6567801 0.82210314 0.38042 0.7756119 0.96447664 0.20376647 0.5233296 0.28713796 0.7928544 0.5775934 0.6345824 0.79791415 0.39597046
technology 0.9150901 0.53302884 0.15795483 0.6958991 0.79326135 0.31676167 0.8571793 0.90614325 0.2769045 0.98352146 0.14071153 0.20201567 0.18422484 0.8939897 0.6542925 0.15210429 0.4403234 0.61529803 0.083464086 0.88241637 0.80360353 0.50520676 0.9671266 0.41776097 0.9841103 0.66792 0.6346713 0.16595489 0.8819277 0.4274897 0.16223341 0.0126075195 0.5597557 0.5273996 0.7193536 0.8902581 0.07940658 0.7314965 0.18741195 0.85817707 0.8190635 0.5407938 0.7102428 0.3143501 0.4711679 0.8216369 0.4592652 0.35779828 0.49421245 0.8282493 0.33520806 0.17376159 0.712014 0.8259782 0.10063748 0.23987411 0.14197199 0.3479414 0.45035097 0.7488263 0.6511476 0.6209286 0.35237494 0.84144753 0.47128716 0.97910494 0.63414216 0.12626474 0.67617756 0.32510403 0.6863272 0.06964115 0.17488144 0.85573727 0.22717956 0.83704114 0.2792761 0.64288193 0.69415057 0.5126548 0.30531067 0.21264438 0.033189356 0.3039464 0.6531628 0.93830484 0.8712045 0.76606476 0.7884473 0.6649849 0.26028687 0.90719503 0.6707323 0.56044066 0.11098947 0.44705555 0.46035826 0.8645636 0.5466482 0.38040054
computer 0.9768003 0.11072059 0.42254844 0.042024676 0.7399041 0.9180766 0.28003734 0.8583417 0.29221824 0.9107702 0.7539619 0.8049068 0.018006556 0.96281034 0.726671 0.3047511 0.82939464 0.2815212 0.87275386 0.11258039 0.703686 0.54069847 0.09653447 0.24189383 0.012404037 0.46876797 0.30126527 0.5983575 0.2972378 0.2999191 0.7431932 0.048142835 0.902895 0.85226387 0.66780466 0.59322155 0.8923025 0.18533018 0.078969166 0.23951016 0.79457825 0.034670267 0.5828068 0.9954375 0.8556961 0.5214457 0.06364091 0.8313735 0.5989785 0.114933 0.09385729 0.90962684 0.66920024 0.8292868 0.8789789 0.57177234 0.51744634 0.4304274 0.3169466 0.43459597 0.77387965 0.6019234 0.8925233 0.44338003 0.6070896 0.63130754 0.59169716 0.7026338 0.23743346 0.5123638 0.1042248 0.38451132 0.48766705 0.65222424 0.95053107 0.6006511 0.74359393 0.50626606 0.634104 0.07093222 0.25439158 0.3618531 0.47249335 0.045648746 0.1400241 0.2768143 0.9715327 0.33134702 0.48204106 0.19609772 0.61078006 0.28068322 0.20699258 0.51657265 0.0055057993 0.0076640327 0.21906881 0.036721364 0.10802575 0.33886066
internet 0.80258566 0.57204866 0.5126677 0.29348883 0.9317537 0.39701504 0.087092765 0.6170665 0.1138384 0.34522313 0.50741196 0.8742225 0.49354658 0.70225877 0.99281687 0.13148911 0.27473152 0.39457607 0.42182818 0.41102108 0.907611 0.71403265 0.6079052 0.30937272 0.8237904 0.9550605 0.8211983 0.0015651052 0.63640136 0.05113538 0.25760722 0.0595247 0.60379547 0.6865899 0.11448764 0.3838389 0.4562365 0.36905304 0.121025 0.4189478 0.751178 0.07100766 0.08018001 0.3547713 0.94172573 0.66857266 0.6786699 0.36192 0.5936608 0.010131184 0.63609606 0.9132869 0.61257344 0.8736986 0.72397304 0.12055842 0.9024533 0.066443846 0.5339675 0.14213713 0.011706611 0.42203426 0.2950407 0.4860005 0.5771999 0.043739073 0.1230033 0.5586424 0.34316736 0.7291735 0.65229166 0.84560436 0.69249284 0.42993107 0.6729666 0.27538118 0.30631348 0.78898513 0.4464195 0.7983803 0.8224224 0.85756236 0.9166352 0.4309852 0.31886682 0.58219874 0.37117243 0.60107416 0.70558584 0.68840504 0.37455288 0.16686021 0.43052933 0.14259414 0.890097 0.34587747 0.15445974 0.02544776 0.6458224 0.63690233
network 0.34060416 0.07171189 0.4096289 0.3112175 0.6771206 0.60577923 0.3645937 0.21789256 0.988036 0.45400164 0.68827426 0.14055297 0.4855897 0.02753672 0.50545514 0.9640174 0.3842067 0.03899601 0.030955791 0.38798675 0.16002494 0.023352096 0.7562136 0.458523 0.28924477 0.9000832 0.11613896 0.95591885 0.31396672 0.88840365 0.6029429 0.82670736 0.98401314 0.28840545 0.9611355 0.3894819 0.3855119 0.3403871 0.5414076 0.15414505 0.5537115 0.54170483 0.7619018 0.83364993 0.44044134 0.30233324 0.2593349 0.19462384 0.057647582 0.34244797 0.2702477 0.9664174 0.5577088 0.34727705 0.5804676 0.1391967 0.44404376 0.6262343 0.48889783 0.4017788 0.9938484 0.88031477 0.62340593 0.56937736 0.6206605 0.20131211 0.39513776 0.039459534 0.47554603 0.5430246 0.22774974 0.96402884 0.9094546 0.72214323 0.53338665 0.8699692 0.13065234 0.7905098 0.12482081 0.7942107 0.27576756 0.8770906 0.9440421 0.14879596 0.4626756 0.98098737 0.48340744 0.8635475 0.5887315 0.3753299 0.28578356 0.2032231 0.7617982 0.3865405 0.5112755 0.49232548 0.57727903 0.86557716 0.98073936 0.40758422
data 0.82751894 0.7645278 0.57352895 0.9560471 0.20047452 0.10926421 0.85396194 0.43914983 0.8469688 0.8930902 0.062457595 0.88346475 0.44831905 0.5104325 0.6265925 0.9263826 0.019116094 0.47684348 0.687722 0.722707 0.6925324 0.13443513 0.2993956 0.35871553 0.8044372 0.27875987 0.21070497 0.957448 0.008863285 0.99782085 0.6768213 0.8284693 0.2946194 0.014315277 0.7378695 0.8341446 0.74047613 0.1428503 0.7534279 0.7689228 0.6585405 0.7661159 0.84592146 0.6136041 0.08860471 0.4876278 0.07764933 0.40754303 0.4071065 0.06600984 0.34882054 0.1109981 0.8082352 0.94768804 0.072316475 0.9551152 0.5225766 0.29956567 0.076862074 0.50062424 0.79451555 0.7070865 0.05022601 0.07290184 0.40287328 0.2952905 0.23238432 0.2810045 0.8034828 0.92922807 0.4051027 0.906111 0.3214957 0.47643697 0.226029 0.64047605 0.97898114 0.6034931 0.35781407 0.64781743 0.12292068 0.88865906 0.50308394 0.44934973 0.5858648 0.6247839 0.07177581 0.68261725 0.24193168 0.71395266 0.8225348 0.80395854 0.55250096 0.5201699 0.14287595 0.77534616 0.2714094 0.49669543 0.2842741 0.13382836
information 0.62955767 0.054332037 0.74864525 0.3175868 0.00013469301 0.51112914 0.046851907 0.27616957 0.7069765 0.062689625 0.8393385 0.0038199227 0.24682386 0.74090403 0.31627014 0.10189239 0.36023393 0.27039328 0.8427119 0.3133479 0.78893244 0.89187217 0.43381742 0.90994316 0.37731805 0.9640784 0.08928952 0.6870193 0.49381405 0.3876488 0.6327119 0.70385706 0.0043632695 0.16695309 0.7130461 0.6663854 0.9660475 0.76103777 0.9507727 0.7025405 0.29805222 0.10536492 0.7818239 0.64414924 0.04818601 0.36005047 0.9567998 0.50040114 0.43272913 0.4576996 0.20888272 0.36870718 0.36981326 0.05235502 0.76756763 0.41650444 0.8221799 0.850348 0.21199405 0.65735346 0.4722818 0.88015676 0.21574068 0.6778132 0.60775214 0.29530147 0.1366009 0.65163976 0.73859745 0.31562734 0.6448326 0.3951309 0.7132069 0.19921528 0.890215 0.2874096 0.367786 0.058091953 0.111512214 0.5158619 0.26759267 0.8354802 0.014693389 0.37909403 0.33734554 0.019327631 0.1243684 0.41364267 0.49286458 0.40428975 0.5309377 0.5951317 0.009923821 0.46409515 0.96349925 0.5190323 0.67754227 0.31186387 0.7739914 0.7729215
knowledge 0.521296 0.97601384 0.12555021 0.016947664 0.77015823 0.80715555 0.12020723 0.26558283 0.017552363 0.29330862 0.77314186 0.51796055 0.3480956 0.3717393 0.0013536257 0.29980052 0.64645875 0.97419447 0.8470608 0.023594964 0.8985606 0.7831984 0.78037614 0.45799577 0.3980053 0.30291572 0.06569486 0.22823536 0.24660364 0.48407707 0.7474444 0.47380984 0.05784445 0.9577898 0.94272435 0.78518957 0.9913279 0.54448235 0.9627684 0.07560504 0.36568075 0.22538127 0.19583309 0.14080295 0.62241364 0.7813219 0.5782984 0.1469627 0.8111238 0.6359547 0.3881657 0.6741303 0.25990498 0.3451922 0.91748583 0.29050452 0.46998826 0.8901411 0.70772135 0.062203225 0.14730304 0.007841591 0.6309218 0.44767344 0.13427486 0.95793414 0.52965975 0.24189329 0.50060356 0.6796203 0.07623922 0.2747038 0.8069655 0.45966488 0.54657716 0.432816 0.043899942 0.16574977 0.44554165 0.20918547 0.049979027 0.8436497 0.9811925 0.79314286 0.8537849 0.24197713 0.96062696 0.1969257 0.9514298 0.9948193 0.7117228 0.9811437 0.5695398 0.25954178 0.4369959 0.59356093 0.07308156 0.62234324 0.98117787 0.19010764
learning 0.7925951 0.9078988 0.94370157 0.9601356 0.52145964 0.9773079 0.7573102 0.16167143 0.4769001 0.71833116 0.24734032 0.64061517 0.66660047 0.16269974 0.5650853 0.7716269 0.49889567 0.012103117 0.009038469 0.35702935 0.9261941 0.22867678 0.6343637 0.22207586 0.32167 0.8480421 0.72886145 0.095399275 0.42870203 0.029169764 0.48089015 0.66243404 0.118502624 0.28888494 0.39783663 0.91953105 0.993255 0.0449113 0.7610079 0.37172407 0.3924582 0.75426495 0.91842645 0.95092857 0.57712257 0.35712117 0.7875491 0.2510014 0.56407404 0.35857847 0.65663105 0.24039891 0.19159295 0.91823906 0.10180368 0.5059579 0.22085278 0.03892996 0.03601882 0.17522177 0.8667703 0.28247875 0.9504592 0.5816223 0.4366142 0.58008885 0.51669836 0.75877625 0.28249606 0.35305038 0.8940943 0.9464565 0.8925582 0.419448 0.7803655 0.47633573 0.49753985 0.20468011 0.5911303 0.1861359 0.3315647 0.8550302 0.2070758 0.07115828 0.06900759 0.9407845 0.50692046 0.4094121 0.8108786 0.8358259 0.33219102 0.69361806 0.7711228 0.6546507 0.15159507 0.8758831 0.53909457 0.28247243 0.42522818 0.03757109
intelligence 0.1278668 0.76554674 1.16347555e-05 0.41656584 0.5225102 0.05463442 0.9730782 0.22612533 0.3041987 0.3039425 0.23041666 0.001473822 0.7293448 0.9668455 0.22429349 0.6630472 0.74189633 0.8484254 0.4226292 0.3029309 0.32529512 0.71262133 0.8167795 0.18161397 0.370941 0.90194017 0.8066935 0.9848584 0.75424826 0.3931952 0.59063786 0.66101426 0.07845581 0.54449695 0.70932084 0.16732131 0.7806317 0.5837728 0.9522218 0.0424223 0.26532614 0.60155386 0.2965599 0.7144242 0.7590053 0.102515966 0.51385444 0.50889057 0.36928076 0.93292487 0.8275063 0.69720936 0.7143266 0.46171615 0.9209945 0.69459546 0.7289811 0.8616909 0.2740716 0.8070709 0.1952406 0.34534195 0.33561045 0.97852546 0.8565372 0.70116985 0.72705674 0.5620728 0.9470907 0.49625877 0.38051772 0.16303533 0.78620565 0.7344439 0.38435504 0.025193414 0.8389973 0.011417983 0.70369977 0.9702571 0.43766132 0.2349734 0.704871 0.8171281 0.5464303 0.9670353 0.051668722 0.5047956 0.71845394 0.8626405 0.1792556 0.80000347 0.5527071 0.3965537 0.13171503 0.86529577 0.1572732 0.30978787 0.29004553 0.871414
language 0.67270297 0.7966814 0.2504679 0.6248741 0.571746 0.83283037 0.90608704 0.0121567715 0.67401993 0.051835798 0.54885864 0.28763273 0.3067766 0.3529585 0.6212925 0.33404997 0.73269904 0.4045274 0.0683532 0.78375983 0.28575832 0.43276688 0.6854439 0.33245617 0.056585655 0.37392104 0.9444486 0.6417344 0.67147917 0.63228214 0.19899213 0.41833386 0.7509398 0.1013729 0.27785277 0.27631912 0.43201894 0.98036873 0.06750254 0.518701 0.17936468 0.97067654 0.113303505 0.403601 0.737885 0.70455444 0.42272863 0.34652418 0.3976124 0.26427627 0.20533293 0.4830397 0.26853377 0.28746167 0.65675604 0.96853733 0.6036372 0.076979466 0.075583614 0.9514232 0.2972908 0.09206699 0.59904456 0.62364876 0.6485048 0.26740202 0.015110685 0.96501535 0.25089306 0.6760263 0.7066299 0.6100074 0.3129074 0.27109626 0.5976683 0.86609566 0.9467337 0.1059058 0.15482861 0.94473624 0.73653525 0.8829938 0.20263264 0.58758587 0.70113957 0.6801119 0.4081517 0.015394892 0.58292603 0.25310153 0.45025423 0.95758104 0.3990353 0.8398016 0.18854061 0.6724605 0.977007 0.1018931 0.008319942 0.43358278
speech 0.092625484 0.74838436 0.91454864 0.43402097 0.25871164 0.43440333 0.7234478 0.009054162 0.589454 0.6132917 0.6376882 0.24202208 0.71405274 0.09139149 0.19927034 0.8774701 0.73872316 0.013745554 0.24837627 0.21440649 0.27080634 0.24755977 0.06252629 0.4589405 0.7327335 0.6067317 0.67287165 0.081149176 0.9514907 0.83849186 0.8050903 0.8229838 0.9327105 0.54425395 0.20028202 0.6167836 0.7428815 0.73791736 0.521449 0.06845872 0.37111294 0.9207666 0.58444893 0.5383319 0.26885352 0.3684489 0.8953461 0.6664631 0.787387 0.45434543 0.63024724 0.24838361 0.70546085 0.42760134 0.4425455 0.64932233 0.9362806 0.06400634 0.8247432 0.2923831 0.44391945 0.02191333 0.30104607 0.50263125 0.056176078 0.49109572 0.9271106 0.105393216 0.7644407 0.40967107 0.6551737 0.2602366 0.15949227 0.16046262 0.07049195 0.1856467 0.6642194 0.8816906 0.81412566 0.6851343 0.110431865 0.28918746 0.30980688 0.24995695 0.51500565 0.5355538 0.35688597 0.35378915 0.8285556 0.7892929 0.30779582 0.91378844 0.952815 0.32674253 0.35442495 0.5056341 0.9411208 0.8763194 0.10256796 0.39273074
communication 0.5533712 0.50313246 0.19386306 0.85881674 0.6769408 0.8379084 0.8587643 0.74835587 0.4392106 0.61054677 0.1603654 0.67364544 0.17925325 0.6939496 0.22959816 0.1175513 0.16528448 0.0019921353 0.7187396 0.7324011 0.51493335 0.1613628 0.083554335 0.019128967 0.16574818 0.89085555 0.24153684 0.35427132 0.10534549 0.22236131 0.5192246 0.6077527 0.24535231 0.057732157 0.39103287 0.23420337 0.21955392 0.9598628 0.61630046 0.55687845 0.4157751 0.42894432 0.540905 0.6964298 0.7021461 0.1716939 0.5001128 0.4119581 0.87052697 0.63141894 0.5325041 0.115394644 0.6056379 0.117203906 0.33720657 0.14284196 0.69207364 0.20625211 0.39185938 0.89567477 0.20431638 0.50780505 0.41927165 0.01812404 0.7927581 0.06904591 0.47425503 0.5606783 0.62842643 0.68863165 0.25327238 0.009978777 0.7234437 0.5356566 0.8361177 0.82138836 0.84332615 0.48509467 0.3336284 0.7915582 0.45129412 0.18344219 0.85497403 0.8825599 0.46630976 0.075699724 0.38782609 0.80353767 0.90177405 0.20347275 0.06697361 0.87735045 0.38940495 0.541761 0.9680658 0.06656473 0.648318 0.07410542 0.37546894 0.80381453
education 0.43347225 0.99718237 0.55905926 0.32116216 0.22011133 0.35052052 0.37253326 0.06871368 0.3695742 0.46423852 0.7227377 0.65672946 0.7087656 0.008363682 0.2176674 0.6616843 0.48398936 0.0053134756 0.8044946 0.77280957 0.5484192 0.06646333 0.7665151 0.5837136 0.78195995 0.751747 0.80300206 0.51800805 0.14032452 0.6711575 0.6204738 0.7422532 0.169881 0.1949752 0.8904095 0.7499778 0.9082285 0.75871533 0.59715533 0.6541327 0.8891279 0.57880676 0.63239133 0.15647672 0.4739212 0.7163971 0.2709427 0.20225418 0.3138268 0.24150063 0.21491264 0.42485085 0.9078385 0.50705963 0.18792038 0.07697167 0.69615614 0.38279876 0.8218309 0.6595108 0.79624146 0.27194604 0.6923589 0.264062 0.9390685 0.6363743 0.3245118 0.26951185 0.19092658 0.69464093 0.21871561 0.59530324 0.26463503 0.66196895 0.81493974 0.77802527 0.7608513 0.1877224 0.08838495 0.6989488 0.36834723 0.43234622 0.031149093 0.25957644 0.033676405 0.8791858 0.24339668 0.55733716 0.03897932 0.6668474 0.32302734 0.8979192 0.8881182 0.32529062 0.9009609 0.99615765 0.8254157 0.84487134 0.24900873 0.5767024
school 0.067255914 0.09491794 0.9988926 0.32663924 0.7481839 0.80666506 0.8580233 0.9976283 0.24149649 0.04035083 0.41119152 0.13008067 0.02242589 0.3604268 0.78373826 0.5661807 0.312778 0.654342 0.23201819 0.014381446 0.7643534 0.62374306 0.76230264 0.038938016 0.83711964 0.6195262 0.5633953 0.62461406 0.8644332 0.58693653 0.5809504 0.99067914 0.75673014 0.4422938 0.707397 0.38923046 0.22887546 0.5968519 0.9281821 0.9291395 0.34190527 0.5276775 0.2116359 0.9956311 0.9811179 0.64950895 0.80441403 0.71510017 0.59315825 0.053347997 0.45476434 0.6747863 0.6775316 0.37312263 0.941692 0.16735703 0.5003595 0.690884 0.6971358 0.64863896 0.27528822 0.15620656 0.6359403 0.5993021 0.17935601 0.70513916 0.455172 0.6677606 0.83736706 0.16972843 0.019144868 0.77910256 0.6096974 0.69963956 0.838155 0.8028109 0.96092016 0.5359351 0.48849562 0.4018872 0.15369104 0.5726072 0.27701253 0.9213075 0.5831908 0.5928402 0.35492465 0.05198935 0.031743765 0.42333513 0.08456538 0.6068469 0.880973 0.88291484 0.6590454 0.21123183 0.8629968 0.88609344 0.19665359 0.7374261
university 0.28651956 0.8026403 0.9972379 0.030026006 0.89736587 0.62263054 0.9733826 0.4650095 0.8473879 0.062394068 0.33527905 0.067016535 0.9753431 0.8169739 0.8525474 0.9379652 0.08510349 0.3855976 0.071034886 0.21079311 0.22936578 0.4691072 0.26856217 0.100978106 0.1674911 0.14727557 0.9730768 0.7592925 0.96776146 0.43974048 0.27836847 0.7982932 0.32625392 0.29938337 0.23250599 0.12967898 0.25646305 0.35531974 0.6739942 0.06256484 0.21050695 0.8090236 0.14692192 0.34264514 0.8646589 0.15492532 0.082736835 0.484538 0.3024195 0.5634084 0.8038049 0.13714848 0.5806991 0.5055088 0.14407879 0.62399846 0.27364042 0.4878343 0.08227232 0.45958406 0.30646348 0.8223812 0.05697873 0.41860726 0.45843142 0.7250061 0.5742876 0.6672123 0.7770493 0.862203 0.3138755 0.5380227 0.8401081 0.9894511 0.88951933 0.37146726 0.19516651 0.48939255 0.74164146 0.49256906 0.48318085 0.83823043 0.3614038 0.8597947 0.4068048 0.3282331 0.45398992 0.76244694 0.12600203 0.19641921 0.9514448 0.17549163 0.5677273 0.5793145 0.48962447 0.64474523 0.22982672 0.55266225 0.37217325 0.6616673
teacher 0.14122355 0.57087743 0.18527035 0.27864307 0.2187098 0.18283778 0.82571095 0.28570756 0.9271238 0.96992654 0.57126045 0.14300112 0.37454826 0.79773223 0.36739072 0.087017216 0.5567849 0.84512085 0.7959264 0.17512314 0.6727646 0.22050427 0.21820754 0.8740718 0.24966896 0.26324734 0.0006533908 0.870669 0.7925948 0.62732893 0.7502658 0.15204857 0.4583236 0.3512194 0.093776524 0.48613048 0.92073965 0.04005912 0.2914609 0.20754093 0.23814665 0.90843457 0.46806905 0.4662994 0.76057565 0.1544922 0.48726535 0.42998523 0.5969107 0.9995577 0.7694489 0.3978657 0.82755303 0.17070836 0.030463686 0.20444837 0.34041154 0.5105808 0.6151291 0.9106057 0.509854 0.50127566 0.05024301 0.034911554 0.55116 0.4381786 0.8391804 0.16067958 0.024971662 0.44903877 0.23747855 0.049614374 0.7245983 0.111593 0.6083195 0.28104976 0.17349605 0.37975153 0.8014458 0.39209357 0.7507697 0.1254863 0.7727714 0.23693332 0.67739314 0.56578153 0.92914474 0.38732252 0.06616519 0.019155486 0.8268586 0.5247356 0.77524406 0.2344256 0.34508374 0.030103872 0.9614923 0.6678679 0.93320507 0.2654964
student 0.6114636 0.6785 0.3175497 0.84810925 0.94716144 0.8848551 0.73906696 0.2774647 0.28161603 0.9633603 0.010284496 0.71604997 0.70624614 0.62268955 0.99010885 0.31187943 0.33997187 0.0789394 0.44279814 0.26104853 0.3433867 0.8345718 0.9354845 0.18573307 0.37250894 0.9286306 0.06180846 0.09236053 0.16279098 0.5952128 0.15047227 0.9680764 0.44671452 0.50151795 0.24665862 0.47096026 0.66191363 0.75117713 0.7538681 0.5778911 0.90435976 0.81740785 0.75704813 0.055605523 0.006877962 0.21244727 0.6635236 0.41119748 0.40240625 0.8845869 0.8955628 0.9091753 0.3138781 0.69105583 0.27163318 0.19060983 0.18463245 0.34210762 0.42995763 0.8309492 0.11989109 0.73492587 0.5314549 0.28794533 0.49281958 0.29994208 0.596082 0.4338439 0.16440552 0.11658307 0.5466957 0.902413 0.3439577 0.7330001 0.65866137 0.9315549 0.820981 0.56660527 0.6570305 0.8983865 0.3995188 0.3267947 0.010811084 0.8265511 0.8009807 0.10445452 0.5768574 0.4639817 0.118709095 0.98056823 0.21469589 0.06723418 0.5948474 0.7388667 0.032443445 0.65871763 0.5322919 0.10326501 0.17252387 0.56797427
classroom 0.2963576 0.93831575 0.81874025 0.9835672 0.25967085 0.96972364 0.43123388 0.3475188 0.050349526 0.052765258 0.69201124 0.457929 0.22652163 0.6139703 0.25285813 0.5776318 0.35920873 0.82355225 0.8206962 0.47735038 0.3508191 0.3625598 0.80571455 0.32817948 0.20905937 0.08468834 0.46669313 0.4821321 0.8409087 0.2212387 0.38099128 0.80840576 0.8236236 0.38461107 0.45912403 0.3032859 0.9325549 0.11864377 0.93374944 0.68386644 0.53157216 0.03265906 0.4755962 0.4077481 0.1612188 0.6564096 0.97115093 0.5621888 0.71475327 0.06845045 0.417667 0.11635849 0.6127958 0.93848217 0.66177773 0.07680305 0.3546662 0.55066335 0.40320775 0.83364403 0.814671 0.611831 0.37345794 0.25533637 0.105874315 0.35489768 0.4131725 0.6758229 0.65815985 0.07010814 0.39525932 0.18177886 0.15681271 0.82730216 0.041915216 0.41918287 0.16820365 0.8793302 0.5570405 0.23138064 0.5024273 0.7314864 0.958118 0.220446 0.8861818 0.9343041 0.9164205 0.63541436 0.62982064 0.40321064 0.7523979 0.53129405 0.6774381 0.42845792 0.73149645 0.82447153 0.14643626 0.83292973 0.54029655 0.8446659
research 0.4313017 0.37904048 0.91506076 0.25116926 0.84421235 0.48402056 0.5140954 0.30846828 0.5730422 0.3252112 0.039269414 0.2719986 0.006379043 0.9783548 0.96574724 0.3951553 0.72837085 0.3458061 0.67109317 0.80543005 0.94675624 0.4002123 0.78329796 0.26592845 0.9903323 0.025769599 0.6035288 0.65950596 0.68804556 0.12038758 0.9385298 0.18118328 0.6227534 0.22267608 0.3072164 0.54645854 0.4171934 0.1602256 0.1709364 0.4181448 0.757283 0.89796466 0.084127665 0.3931039 0.100245565 0.01659248 0.66171867 0.6024494 0.16301912 0.23381284 0.023707753 0.8349472 0.9746906 0.13545954 0.23147522 0.8684095 0.9264638 0.41962737 0.05062247 0.039391834 0.5739499 0.3928951 0.028652428 0.5832524 0.011302536 0.78737193 0.3064328 0.040258 0.5883522 0.39768443 0.9738004 0.5441987 0.27523917 0.70943886 0.271492 0.9042433 0.37472197 0.5498686 0.050573103 0.42612123 0.83236355 0.8056488 0.22431856 0.22607908 0.8173053 0.9303984 0.09536092 0.45005864 0.3374543 0.87068844 0.08352491 0.21112594 0.75246835 0.05129385 0.49253538 0.44210702 0.3344012 0.39457232 0.5299406 0.16136736
medicine 0.57199585 0.8054323 0.7601609 0.15389991 0.14924946 0.26817438 0.36107472 0.40845558 0.6796972 0.056680433 0.034672704 0.39191055 0.6971637 0.19343534 0.64150447 0.25982815 0.8860861 0.89568996 0.2972872 0.22999376 0.41130397 0.24053158 0.67238384 0.8260647 0.6730921 0.8243505 0.39699218 0.15631697 0.7379509 0.3604745 0.67127085 0.27064395 0.081229635 0.9925818 0.15620151 0.988421 0.97727996 0.7938181 0.65942293 0.57780707 0.86610156 0.28943953 0.4676812 0.61938995 0.41119048 0.42748645 0.33028466 0.5642318 0.85057455 0.20152839 0.93443304 0.6890876 0.82327324 0.55619067 0.7795167 0.016200397 0.8183804 0.04013886 0.8899134 0.99196273 0.29406747 0.21031855 0.76536334 0.25302634 0.8655624 0.10284259 0.1259552 0.97915155 0.6738389 0.84688723 0.32432938 0.67648375 0.5942418 0.6031501 0.6825325 0.57535917 0.42906237 0.2759227 0.76858133 0.22627243 0.6923543 0.23333283 0.62533015 0.74707824 0.2187139 0.0599433 0.13097374 0.60599697 0.8494464 0.04499682 0.73415124 0.34131864 0.47852838 0.92885953 0.3319715 0.46533695 0.013682415 0.08159872 0.2585916 0.027852241
health 0.6313753 0.42639837 0.5481452 0.17464718 0.29593202 0.6638245 0.9653027 0.050416775 0.8903843 0.57688123 0.56391954 0.50027853 0.06939409 0.08987685 0.60091203 0.34095857 0.91726804 0.40659055 0.14328146 0.7147188 0.2933534 0.5254703 0.69783276 0.9002641 0.7921912 0.6763611 0.6796332 0.94592464 0.2958241 0.0011120941 0.27195457 0.21789138 0.6618346 0.6337116 0.5934614 0.016243443 0.72877806 0.3235304 0.665056 0.55657846 0.34273094 0.13457626 0.0944189 0.83151835 0.91839755 0.649788 0.103434116 0.40202722 0.7289392 0.77982086 0.11821862 3.0718846e-05 0.71213704 0.35659617 0.25448135 0.01289747 0.5402994 0.85115075 0.95763165 0.56574494 0.51446134 0.08505639 0.5488728 0.37997907 0.6071353 0.38872635 0.24029912 0.09496527 0.31491846 0.09664483 0.17689694 0.98733616 0.44410357 0.5318718 0.87361854 0.9955689 0.58271444 0.81247383 0.326941 0.30574396 0.40270373 0.6725073 0.68219167 0.31523943 0.13320993 0.6323963 0.12832586 0.5784925 0.69342214 0.7006115 0.7534721 0.8728594 0.499959 0.73024917 0.61917275 0.18663993 0.025689645 0.2845414 0.4430337 0.61710596
doctor 0.8499593 0.19624572 0.1255498 0.96347994 0.10804456 0.47849107 0.5855637 0.54137444 0.08603216 0.057026915 0.10548343 0.5855877 0.5443449 0.23374079 0.63777417 0.8200675 0.04157896 0.49812993 0.68931043 0.25231192 0.3077709 0.6136379 0.8979353 0.8099244 0.58313024 0.7302217 0.36482248 0.6409655 0.46618158 0.18993613 0.7017383 0.5564646 0.35862157 0.91133916 0.020934118 0.31577316 0.056881398 0.7665273 0.7021074 0.3313522 0.6756629 0.39593723 0.7562538 0.45418367 0.41227973 0.93472993 0.2508791 0.12044734 0.5845431 0.9693218 0.3778392 0.062036764 0.33930528 0.5059317 0.161923 0.6581022 0.9977494 0.4517395 0.35472855 0.40070418 0.115146175 0.8832736 0.41482565 0.3872744 0.65969026 0.4420334 0.6482335 0.06144629 0.8137233 0.94050395 0.6487654 0.95456594 0.15143232 0.4774162 0.60180676 0.5817366 0.40146178 0.3380844 0.12682402 0.39174244 0.16266082 0.7343657 0.20883094 0.058565304 0.55236614 0.59522974 0.8719131 0.5769816 0.34548086 0.8030119 0.5402789 0.07928029 0.56585056 0.9080185 0.39631262 0.2963258 0.14346945 0.15144552 0.43277147 0.5956798
hospital 0.08061541 0.9395686 0.7551336 0.5866239 0.8284387 0.080186754 0.4768389 0.6300931 0.8286529 0.78346956 0.27706924 0.9408802 0.12434584 0.87513363 0.97094023 0.17715353 0.72206604 0.04028552 0.40542284 0.5162833 0.5806452 0.9359372 0.6722507 0.48127794 0.80967504 0.9505328 0.022066148 0.9825213 0.08613214 0.8143868 0.28033474 0.13217966 0.43985564 0.6439566 0.38095185 0.054565407 0.59946114 0.9024033 0.38321537 0.21633278 0.44257733 0.04836271 0.82048756 0.8263408 0.5880005 0.3531029 0.79978335 0.554687 0.8259323 0.6314588 0.78440547 0.598563 0.41414106 0.9579459 0.54111385 0.60508955 0.22048764 0.62565076 0.57160765 0.1848384 0.0595871 0.6043593 0.76369226 0.5234014 0.22677262 0.66652197 0.08010573 0.4418337 0.16336676 0.18445905 0.20229395 0.38670707 0.051150206 0.39779344 0.5117074 0.48329428 0.3827841 0.8391466 0.14532669 0.5056968 0.062041417 0.07115568 0.57386583 0.5660184 0.8780335 0.55787367 0.959791 0.04869485 0.09800769 0.044065863 0.18527685 0.54127014 0.6455722 0.04558516 0.9459709 0.84216535 0.29661247 0.07718753 0.16988707 0.12694441
treatment 0.12328378 0.51856166 0.24584745 0.35813972 0.98950535 0.68431425 0.9489807 0.14255655 0.38213947 0.5547318 0.076758064 0.0041874438 0.67043436 0.64181954 0.4107888 0.48964408 0.415443 0.024005044 0.3353716 0.17708226 0.09842419 0.9567204 0.59935975 0.7286563 0.31536373 0.39314714 0.236924 0.09696567 0.17903164 0.797514 0.6775458 0.5469289 0.47508988 0.9224343 0.072734945 0.28060082 0.34993786 0.7824258 0.9925146 0.24067052 0.87430733 0.83062273 0.2246574 0.39933258 0.40967286 0.97822064 0.1808919 0.799158 0.33419272 0.73087037 0.420011 0.5783598 0.8326118 0.80416554 0.8664232 0.059617326 0.6920506 0.13998738 0.41581857 0.5485884 0.4027395 0.51961166 0.9965263 0.13521731 0.67545605 0.39600095 0.1330098 0.15873677 0.9492731 0.8796015 0.90704197 0.9915328 0.20831539 0.35543934 0.669219 0.48380253 0.41838953 0.35781124 0.59378064 0.5755934 0.16145784 0.47173983 0.5534718 0.5702869 0.21010719 0.74227136 0.025199095 0.35483184 0.78021264 0.5638929 0.26116243 0.69495314 0.5673909 0.7962436 0.73502517 0.6101079 0.4881777 0.13318212 0.26133302 0.41909948
disease 0.5992993 0.5137079 0.28818452 0.006464358 0.49623922 0.285626 0.7346083 0.023946265 0.58482784 0.94147426 0.17440927 0.4716495 0.09142199 0.62568194 0.5505317 0.40736553 0.521377 0.8965747 0.19629431 0.022564512 0.8616649 0.5771171 0.89065844 0.5969452 0.8101611 0.42967337 0.7498599 0.9130415 0.572123 0.18078515 0.2687976 0.19864458 0.24685703 0.30641544 0.55513376 0.58799165 0.42649975 0.61542076 0.081574924 0.08778824 0.17182946 0.5180775 0.21399468 0.2832844 0.40031284 0.8118661 0.013862136 0.64937884 0.6688765 0.7986558 0.93275297 0.020137848 0.15378371 0.8861713 0.45851856 0.56459063 0.6630272 0.6790666 0.9317404 0.99694943 0.72015744 0.28722122 0.8797524 0.049220916 0.23108086 0.8973857 0.25619152 0.22065106 0.1381253 0.8591118 0.50005823 0.6748932 0.23906638 0.7580404 0.76000553 0.31259802 0.41068262 0.20969027 0.976561 0.6456026 0.9345439 0.30338556 0.7818909 0.76585865 0.69165564 0.965639 0.39355534 0.13071732 0.6717089 0.7293098 0.57506055 0.2068179 0.5044559 0.31218973 0.42746654 0.64521855 0.74521476 0.23222469 0.40532535 0.26916158
biology 0.19863161 0.78338724 0.9092527 0.3702322 0.75127894 0.8969953 0.84612423 0.18281339 0.95629185 0.37667644 0.33924067 0.062431328 0.48617366 0.10901362 0.24853982 0.31694263 0.8088263 0.87548864 0.3024663 0.8586981 0.85723096 0.76465094 0.1466951 0.6903229 0.9450241 0.6825405 0.33161685 0.5005793 0.6457251 0.5105704 0.11995294 0.31206405 0.80239606 0.86141807 0.13730003 0.95238674 0.3288226 0.66231376 0.75182515 0.8119462 0.9457497 0.31291956 0.85850644 0.1316869 0.70504093 0.74197775 0.6777232 0.25231475 0.8730431 0.16885847 0.053634793 0.717465 0.47547573 0.849098 0.38339713 0.16827859 0.8364422 0.5489096 0.1891958 0.720384 0.51111364 0.60431296 0.46089834 0.828709 0.8295627 0.7093888 0.105401374 0.83885384 0.671013 0.69702417 0.36298284 0.87927955 0.7253716 0.11259047 0.40777802 0.8863804 0.0471967 0.9614166 0.67916256 0.63137597 0.27055925 0.24879178 0.9420582 0.29827246 0.7755053 0.3931218 0.13925406 0.010715297 0.54425734 0.9757788 0.36913618 0.35719234 0.34409162 0.5205438 0.4406649 0.87991464 0.5055208 0.50775784 0.1383716 0.98273957
chemistry 0.2499729 0.073364064 0.66314626 0.59536636 0.41514567 0.42219225 0.7850639 0.19571264 0.8202533 0.6487471 0.41896978 0.4580286 0.2566472 0.75211436 0.5128747 0.32085454 0.59605014 0.99573445 0.4352623 0.92069143 0.34501684 0.054732706 0.20424211 0.41869515 0.21963494 0.00022703822 0.9150015 0.8438794 0.7422922 0.1678146 0.12036358 0.06760475 0.7240292 0.928808 0.43053582 0.11914067 0.5123928 0.34883192 0.3748249 0.6213306 0.7187181 0.1106036 0.03559023 0.9943303 0.23272835 0.053830527 0.18987533 0.038957845 0.3918109 0.8024018 0.34124446 0.4441834 0.67558676 0.5088941 0.86144567 0.8660357 0.009910695 0.7780463 0.4607336 0.9888405 0.48323208 0.9868959 0.75456935 0.24860488 0.538395 0.99213564 0.8575306 0.09736689 0.706372 0.3455796 0.006982262 0.40348098 0.23475443 0.8188693 0.3373306 0.8275237 0.00059793884 0.30781916 0.24116522 0.23356736 0.06818662 0.18712427 0.55554956 0.29136106 0.4173948 0.37686688 0.8759049 0.905299 0.49295697 0.33015594 0.106800705 0.9534029 0.060226943 0.29765028 0.2980662 0.32040128 0.16428684 0.7831614 0.122497864 0.63490665
physics 0.123846024 0.07053564 0.9094295 0.19012877 0.82125014 0.5446309 0.07785652 0.9554482 0.24696116 0.85964537 0.16881001 0.8539429 0.013228813 0.51178044 0.76944256 0.9347955 0.90920216 0.81962484 0.88819134 0.19921969 0.2841843 0.28896853 0.37705392 0.39332068 0.5445553 0.15987976 0.6912467 0.16756654 0.3103085 0.50334513 0.79644054 0.73946923 0.64553434 0.15577327 0.54704535 0.0874465 0.37736318 0.41351652 0.03981144 0.2739881 0.9556495 0.9536326 0.35232705 0.043100107 0.17909494 0.3922178 0.9477797 0.14119907 0.76351583 0.10868254 0.98125756 0.3816165 0.7752345 0.34259108 0.62766886 0.19201608 0.14602102 0.93806416 0.9176473 0.88746893 0.62543344 0.8082682 0.06903694 0.33478904 0.31370312 0.63564533 0.35595778 0.14850678 0.5964671 0.8143839 0.3821235 0.13226871 0.19668819 0.23748331 0.29989758 0.6427951 0.6009455 0.69607985 0.36250198 0.8239977 0.20408766 0.46904075 0.8009387 0.18015864 0.10986312 0.883684 0.34292966 0.68387014 0.025348604 0.6900469 0.3161013 0.055740852 0.60981274 0.24080382 0.38680723 0.080580816 0.14716326 0.29797724 0.0897595 0.91082627
mathematics 0.006047043 0.48386022 0.12324746 0.3076791 0.92605954 0.16169456 0.9658323 0.20579438 0.7415661 0.5466773 0.88447875 0.5539933 0.5345592 0.195458 0.16622937 0.9164891 0.3278382 0.37208226 0.7598237 0.3388235 0.9520624 0.7379278 0.5974292 0.88089514 0.04960591 0.2570627 0.46503633 0.22697854 0.7439052 0.91920805 0.42377013 0.3421326 0.9615507 0.44485244 0.4890484 0.35164988 0.90954846 0.5689555 0.7621746 0.81180674 0.34184903 0.43369433 0.84847176 0.36325535 0.7939351 0.9409923 0.6232104 0.7416273 0.80509734 0.84503967 0.39505333 0.05126346 0.40187627 0.67375624 0.45035037 0.7489632 0.35698244 0.63474417 0.1864198 0.74936944 0.54569596 0.20406438 0.29191118 0.7486087 0.48260123 0.21603145 0.9672712 0.715125 0.95713484 0.42710504 0.47510034 0.89795524 0.5250493 0.7072789 0.2521729 0.44672647 0.12344987 0.20598003 0.0009434153 0.03926505 0.97728384 0.2423537 0.6633107 0.8390997 0.55066043 0.1531445 0.72811645 0.60025144 0.7312506 0.7697466 0.97541034 0.5735633 0.3416411 0.64846456 0.068440706 0.89739734 0.11938101 0.32784283 0.81574535 0.5973124
engineering 0.3936355 0.47343567 0.8545474 0.34000438 0.8696497 0.08813443 0.7767984 0.84754765 0.18181765 0.43034652 0.16549978 0.7066041 0.53534776 0.63532335 0.19648696 0.21174586 0.041497324 0.32206753 0.55974466 0.8579349 0.66692746 0.4353963 0.9531201 0.7192452 0.93016523 0.52758795 0.25890428 0.052826688 0.7260848 0.121303 0.3027751 0.5324709 0.5644166 0.6005832 0.16625533 0.3797374 0.61719424 0.9698189 0.72763115 0.9226038 0.76221204 0.59171695 0.19202337 0.66668564 0.6233796 0.60246915 0.48978588 0.5286566 0.33444253 0.5193127 0.1975559 0.8051744 0.18577695 0.08496629 0.43624604 0.65830743 0.4377168 0.27675414 0.5581712 0.34700233 0.9328677 0.92264515 0.50237185 0.327884 0.73713243 0.036712945 0.474769 0.33632338 0.92053586 0.012003027 0.5528149 0.7406636 0.485018 0.08540303 0.9724614 0.51801044 0.6141862 0.23660979 0.4834981 0.42914948 0.074895844 0.10616035 0.8374725 0.23981996 0.19495827 0.5049114 0.76874715 0.06194652 0.5768079 0.119210444 0.03646105 0.052743953 0.8341641 0.117972486 0.045151364 0.4378999 0.8439935 0.26240838 0.4217126 0.03992253
robotics 0.4490785 0.57761306 0.57090706 0.3324267 0.3155332 0.10662362 0.3667983 0.099494666 0.76659596 0.9662743 0.9700745 0.8650711 0.60079217 0.7008657 0.2852058 0.63077044 0.45564955 0.48201734 0.75777656 0.28191835 0.31803963 0.9246418 0.056224294 0.4856343 0.9128008 0.610363 0.5464071 0.24974418 0.3432755 0.8520484 0.5592181 0.5147422 0.099579714 0.016028157 0.9636852 0.37698618 0.6032131 0.07971507 0.6831143 0.9325667 0.57566524 0.12611532 0.58172154 0.7663472 0.40641654 0.87983775 0.64868295 0.8992489 0.6235053 0.13128798 0.3096917 0.20179495 0.9088265 0.76040006 0.6763984 0.30096632 0.18404478 0.7564511 0.47415796 0.22578955 0.616622 0.040333852 0.32617027 0.468557 0.14795834 0.9846545 0.20909737 0.13035312 0.20353487 0.76906115 0.42550567 0.5654159 0.021009156 0.03443131 0.44582555 0.8166552 0.8852389 0.08670657 0.5383631 0.9132297 0.38797274 0.8295658 0.13369565 0.93539447 0.7514233 0.94133437 0.6766172 0.36340395 0.93818116 0.2755668 0.3321725 0.7008084 0.7653163 0.9294035 0.20480241 0.797998 0.7385461 0.06379455 0.38722315 0.28276545
automation 0.30449042 0.9829469 0.64277744 0.71767616 0.97661763 0.3772018 0.8018402 0.43453097 0.86953366 0.18065754 0.9476862 0.21877171 0.3262205 0.7561922 0.39375514 0.6082114 0.4445735 0.74236995 0.22833125 0.058457986 0.2999294 0.47430867 0.16802005 0.3547973 0.39998302 0.057391845 0.58330727 0.88434345 0.15174292 0.597808 0.6647392 0.41933468 0.7010976 0.41073155 0.5046373 0.0073530446 0.6917201 0.6613427 0.038400877 0.3682501 0.97903186 0.42073655 0.5019454 0.90993017 0.71726185 0.5820701 0.79780465 0.8643663 0.45688808 0.47510836 0.38605094 0.96670616 0.69716626 0.08322307 0.8629596 0.48055995 0.068753906 0.54971725 0.41716427 0.8777494 0.2039946 0.8264646 0.5576887 0.054610305 0.9718453 0.51261526 0.29087687 0.46940684 0.85785776 0.30490312 0.1926764 0.12907125 0.2978594 0.7800481 0.47162637 0.2274816 0.166185 0.3327295 0.93992436 0.34302673 0.9881241 0.48523045 0.17916392 0.8911401 0.46035537 0.7096713 0.9837116 0.05017535 0.09669456 0.7204567 0.281825 0.18430139 0.03936188 0.021846712 0.7744856 0.13443343 0.46772063 0.60589683 0.4283518 0.027106652
industry 0.7835015 0.010513225 0.7618899 0.89330447 0.43283993 0.5355425 0.4769834 0.3892086 0.8874245 0.89393353 0.33581635 0.61506975 0.92690754 0.9620585 0.50895905 0.4528248 0.2786943 0.9588719 0.14281431 0.5798296 0.28255028 0.2790083 0.4049686 0.99879295 0.05496631 0.5785418 0.082572155 0.15452082 0.43956295 0.51046014 0.2587924 0.31645712 0.08696702 0.3032198 0.96655846 0.9447074 0.3348783 0.57085395 0.9095954 0.0061838226 0.81068355 0.94836956 0.09132574 0.16144769 0.9607463 0.53754014 0.014196634 0.257632 0.44994366 0.6929089 0.7331604 0.9954215 0.2875112 0.5382201 0.5333235 0.40564525 0.1691619 0.97745657 0.8533172 0.49833304 0.60324544 0.22726105 0.54378706 0.69497013 0.51516706 0.99028516 0.61134166 0.3709737 0.772152 0.17046252 0.38451582 0.34695897 0.4318071 0.7817798 0.48417303 0.79401445 0.5764889 0.34206945 0.8099787 0.23828967 0.22438298 0.50450295 0.26084924 0.0090870345 0.64829755 0.5110938 0.4455178 0.96696854 0.5711992 0.8634316 0.13945024 0.5692065 0.86797965 0.58310574 0.7180142 0.37204358 0.092449516 0.4579003 0.3944794 0.8670602
economy 0.24399531 0.96673423 0.9581381 0.24763164 0.34805197 0.89555573 0.96662223 0.4434391 0.32099706 0.526094 0.68776923 0.2734745 0.7364732 0.051657356 0.049294494 0.38628772 0.3534732 0.3156332 0.49101976 0.32073358 0.19225793 0.30946955 0.9749043 0.4111134 0.4447128 0.576545 0.98334074 0.24160127 0.6812821 0.7159847 0.6073244 0.088578336 0.67687225 0.06409471 0.59614265 0.73958117 0.2109699 0.841622 0.030353805 0.8438129 0.46032906 0.21758793 0.13377814 0.95330715 0.07266559 0.19909342 0.34782234 0.62023485 0.54480106 0.12564349 0.289728 0.23875177 0.21354285 0.41114435 0.70403147 0.21745293 0.3666789 0.39091742 0.9764565 0.9546664 0.8001376 0.24165893 0.068037316 0.31690413 0.26679456 0.5059258 0.7777279 0.8583229 0.8448641 0.35967556 0.68723434 0.3128342 0.060905542 0.70156527 0.009827552 0.40918258 0.32937926 0.69337755 0.7662455 0.30409464 0.81162703 0.29391676 0.44632635 0.72701854 0.6929202 0.98736846 0.22516103 0.66231793 0.6096819 0.9150984 0.15636215 0.75179815 0.5682686 0.27466586 0.4744349 0.3337766 0.5793134 0.8890006 0.569305 0.6317224
business 0.51874787 0.051165506 0.23285855 0.49200174 0.3102353 0.1817636 0.50413287 0.3228098 0.25810763 0.4639854 0.13328426 0.92774576 0.8677021 0.70762056 0.10621383 0.77587724 0.80795735 0.7677646 0.113965884 0.64390796 0.8343248 0.5773534 0.64640737 0.45836347 0.5287073 0.03437686 0.63896304 0.081447214 0.4350146 0.2926551 0.545428 0.13341634 0.6916434 0.7950115 0.16335446 0.10431309 0.14551549 0.8771276 0.52818924 0.467261 0.10671182 0.649556 0.8679996 0.82818586 0.6260547 0.075278714 0.11239703 0.049308985 0.25747922 0.13566147 0.26004803 0.38505805 0.9429828 0.61037606 0.8349738 0.7103515 0.11250313 0.7359204 0.2750989 0.6391078 0.34096196 0.99767226 0.26355147 0.27913046 0.9306722 0.024644405 0.696689 0.7253264 0.8363786 0.9744393 0.9756019 0.06527676 0.82183933 0.6463099 0.64734215 0.12834993 0.6501872 0.98248255 0.91181856 0.43913066 0.03994797 0.36229348 0.8263903 0.7014991 0.45934364 0.055101536 0.42689472 0.46902493 0.92855555 0.6410861 0.31165293 0.52531826 0.066055305 0.9725682 0.3600599 0.47786736 0.35528398 0.68251175 0.66223216 0.7153223
market 0.26814324 0.3156685 0.12525123 0.65550995 0.039797127 0.59768236 0.8696959 0.8908321 0.44903776 0.45930368 0.076969184 0.67076504 0.82125944 0.24465506 0.4213009 0.83883935 0.8771205 0.24317998 0.5505706 0.19249316 0.10187876 0.9111205 0.8205075 0.7600349 0.04876632 0.8437288 0.43804407 0.34239513 0.54647636 0.091353245 0.7566466 0.5824351 0.18659009 0.1882322 0.18424866 0.057002388 0.5877985 0.8403482 0.017498214 0.049004644 0.5727703 0.8194957 0.3267389 0.3496144 0.5963465 0.2742129 0.026608367 0.73522854 0.6256499 0.580756 0.74168414 0.67523086 0.20588198 0.35248104 0.12611014 0.12985702 0.67619574 0.8586001 0.9627326 0.6283471 0.18410133 0.10565034 0.81285095 0.57875645 0.618285 0.7814621 0.70327723 0.83445823 0.056213904 0.7475206 0.8508527 0.28613505 0.64044726 0.31416208 0.9579711 0.033423573 0.57979286 0.16650355 0.7122202 0.17589028 0.23538326 0.49437082 0.914835 0.21171437 0.14424002 0.7589768 0.50061953 0.9117851 0.14661455 0.6459279 0.23287915 0.15676042 0.6834294 0.5936846 0.75482744 0.30946258 0.44797164 0.40547168 0.9840895 0.29224896
finance 0.29481724 0.35454822 0.5645941 0.25232273 0.91528994 0.26568556 0.89581573 0.103475064 0.6565627 0.9069855 0.16874944 0.968327 0.45288336 0.9457151 0.67682004 0.30158687 0.18830253 0.30373505 0.09301741 0.14386797 0.104660444 0.42294353 0.79557836 0.14138356 0.13032043 0.6434289 0.19718298 0.09761004 0.16684859 0.9237314 0.8214713 0.35406455 0.6558208 0.5372757 0.67712426 0.6826711 0.628734 0.26610136 0.03900642 0.4555668 0.89097387 0.5694973 0.832391 0.99162436 0.16361621 0.69177765 0.6742936 0.97995543 0.9856007 0.6866786 0.2436148 0.79855585 0.10702913 0.7806993 0.9101961 0.3828334 0.6306353 0.43014273 0.43776506 0.3103709 0.7621296 0.93617654 0.94075084 0.17478128 0.87474364 0.73743147 0.2528374 0.067284614 0.26799726 0.91220826 0.63317865 0.7210547 0.25715235 0.7193881 0.028121507 0.37532136 0.62675333 0.14609657 0.8230036 0.23503129 0.6522811 0.40519714 0.5960436 0.10745055 0.0169128 0.90956444 0.26963 0.819677 0.9993503 0.21143126 0.26517075 0.6628598 0.9654486 0.91581434 0.5028755 0.7951103 0.13574585 0.9774382 0.96435326 0.16372895
money 0.29942313 0.100154996 0.2717176 0.8159558 0.3783156 0.08839697 0.34222552 0.9813833 0.6296836 0.41616094 0.1665385 0.9861768 0.820849 0.2814773 0.070068695 0.056625556 0.12037815 0.5807686 0.92876345 0.49674344 0.84294546 0.4458866 0.70858353 0.73187274 0.17396371 0.36121607 0.63730216 0.07069661 0.3615402 0.53479946 0.9962245 0.47453356 0.8160567 0.43206728 0.7963907 0.5954148 0.8865954 0.41094255 0.60430443 0.63001865 0.41738296 0.14431204 0.09355941 0.016671551 0.87353426 0.23647492 0.21150675 0.7360354 0.32001612 0.5060447 0.16251107 0.9597457 0.8515814 0.8637896 0.40677375 0.7623612 0.14387615 0.008619003 0.019972933 0.58660173 0.4553949 0.5180153 0.0074631404 0.4226866 0.7180682 0.4426937 0.7322192 0.23301896 0.813142 0.58843124 0.2107631 0.23672047 0.6280305 0.8299396 0.41562778 0.25830042 0.8670116 0.6692683 0.4480855 0.4879002 0.20425647 0.6268026 0.3587425 0.99564517 0.4801835 0.48588562 0.5658518 0.916756 0.8008181 0.45113006 0.7186993 0.5862355 0.49236706 0.19231577 0.46393627 0.24581859 0.9148421 0.3354068 0.952264 0.5330553
trade 0.63154435 0.54294044 0.12938061 0.37582123 0.09914611 0.6229541 0.4468742 0.777985 0.22047049 0.16456605 0.40633222 0.9265854 0.7104218 0.41892362 0.5172722 0.08421301 0.98457587 0.6664073 0.28540406 0.5858084 0.10948236 0.96583664 0.17478499 0.64803034 0.24545446 0.71756136 0.7768214 0.6734197 0.61449945 0.8924691 0.078626715 0.33091477 0.24828748 0.988014 0.38938978 0.73261267 0.68472517 0.21208124 0.23899768 0.28128457 0.41112727 0.23432507 0.019651482 0.87939304 0.96560985 0.34157038 0.33850688 0.007091813 0.6802507 0.8254399 0.1466083 0.15966634 0.7900832 0.61629075 0.044860557 0.622547 0.30891773 0.36872515 0.7697314 0.8109352 0.40035662 0.9471529 0.40646273 0.77183604 0.48387727 0.89753234 0.9077612 0.087416805 0.93649334 0.8255348 0.7913107 0.20091134 0.8051192 0.85013276 0.28915033 0.9522601 0.049860146 0.14990926 0.53758115 0.5757925 0.64515007 0.01696913 0.9603668 0.044588093 0.14306195 0.014014518 0.5668584 0.9322669 0.66594714 0.82265747 0.013281204 0.5420153 0.459563 0.49896795 0.07221319 0.68443537 0.50322044 0.7651489 0.48529065 0.14938164
history 0.64825696 0.17238636 0.87239456 0.61311626 0.15720388 0.96233803 0.51836544 0.072898455 0.6268329 0.25319892 0.8036935 0.8178221 0.97894734 0.50186956 0.4549569 0.7534756 0.13247065 0.54691553 0.5462476 0.08947312 0.4179841 0.8532848 0.8561536 0.099237666 0.090720885 0.2626955 0.87476605 0.12890258 0.7199968 0.10116562 0.62313783 0.3560673 0.78891397 0.23369046 0.6392018 0.23568253 0.7136603 0.873678 0.1268018 0.8665957 0.59357524 0.1271105 0.42754185 0.1608603 0.7003479 0.75886816 0.10579652 0.5061399 0.8146251 0.93616307 0.51351786 0.95027924 0.535689 0.3941905 0.8482031 0.49298272 0.47190252 0.4903125 0.846785 0.83194155 0.40352 0.33329985 0.491928 0.5727725 0.2383372 0.7939551 0.48648277 0.33404556 0.10682099 0.23884515 0.94928116 0.3050997 0.16885929 0.4606728 0.30708775 0.03515925 0.3231452 0.5441086 0.5517124 0.35655892 0.44730276 0.96551794 0.37734848 0.2582268 0.24346705 0.45776463 0.7595202 0.20598818 0.7092961 0.021149823 0.41893297 0.7758651 0.33873296 0.5637371 0.20497923 0.7419954 0.052279104 0.85254264 0.19819638 0.87439805
politics 0.35252923 0.72268355 0.3192253 0.9059117 0.12663713 0.17851979 0.49303013 0.08193844 0.19598019 0.94376636 0.97648966 0.37625933 0.923286 0.54482466 0.26974246 0.7023987 0.6589018 0.9891253 0.26504728 0.6720595 0.052023754 0.11364604 0.003918375 0.9994607 0.8022737 0.786723 0.50972605 0.3000671 0.15126428 0.28467473 0.37597123 0.7563101 0.53966177 0.077483624 0.018029008 0.10233218 0.4104987 0.9331929 0.6374025 0.8018259 0.4663746 0.36166608 0.108400375 0.87593305 0.78316003 0.1681181 0.51226056 0.4873748 0.62509155 0.9461869 0.57977146 0.5402173 0.05032293 0.06290748 0.18734679 0.03247077 0.7433529 0.7233303 0.13605623 0.8360789 0.15478604 0.3011756 0.2489769 0.3723071 0.25466377 0.48895094 0.40740788 0.98656946 0.05592635 0.14218138 0.052825894 0.6258412 0.05450928 0.8364397 0.51193863 0.52700764 0.5615945 0.17081371 0.19769031 0.31881732 0.59349644 0.21011777 0.11633173 0.9701169 0.021981815 0.8026974 0.78803515 0.29721412 0.13562661 0.14562865 0.6974316 0.6428066 0.78274566 0.93748116 0.6919274 0.15585154 0.24344261 0.8421937 0.20930608 0.07252232
government 0.70328003 0.40252635 0.9200401 0.6502551 0.09041898 0.94785655 0.25855726 0.3372125 0.40226042 0.051224295 0.49651542 0.12331849 0.40097034 0.3507098 0.7728401 0.8031705 0.15341288 0.3665512 0.37335315 0.15141045 0.7984535 0.7072283 0.19038178 0.3667219 0.105805025 0.6282066 0.121371925 0.9859342 0.7806821 0.39023855 0.5785639 0.91134185 0.55409926 0.17449848 0.37870336 0.8431449 0.644213 0.6507244 0.86682147 0.89397305 0.9197926 0.09484919 0.544126 0.7405095 0.75692683 0.6067162 0.16678734 0.79742056 0.7201113 0.086135775 0.46380982 0.1739774 0.33747706 0.018081091 0.40032986 0.5498769 0.6195826 0.66349036 0.8362913 0.21546291 0.12048182 0.85153717 0.15661281 0.97476006 0.84253824 0.5008766 0.9814214 0.09737673 0.30306575 0.6382244 0.35000688 0.92837256 0.065626085 0.54941183 0.59086627 0.65272814 0.25566623 0.36456642 0.8436805 0.19494277 0.8268678 0.56265545 0.76218754 0.7136074 0.2075115 0.5688127 0.86772317 0.43211624 0.96659076 0.4522151 0.14278564 0.38943467 0.9517024 0.31972083 0.86809814 0.8812507 0.35018653 0.08325766 0.72455794 0.3115123
law 0.78292364 0.44265485 0.48526675 0.7779094 0.38236332 0.44312733 0.37619048 0.3673405 0.52594656 0.80879945 0.3617683 0.52425474 0.6707273 0.26943946 0.2775228 0.93341315 0.7235346 0.5771867 0.64772004 0.029299444 0.61810297 0.50950885 0.54574966 0.35942382 0.081473894 0.19333923 0.9507447 0.40869957 0.46668315 0.052709788 0.03756623 0.71718144 0.53809464 0.508706 0.24312453 0.74475074 0.16823658 0.18993475 0.46071216 0.28627986 0.24746299 0.6452376 0.6509718 0.8245171 0.41770858 0.07308509 0.27366638 0.98000544 0.5962586 0.70973706 0.0073578297 0.51820576 0.037528656 0.5692302 0.9207708 0.96841913 0.5405527 0.4582048 0.9450171 0.67360985 0.06489928 0.46572557 0.24024501 0.46980432 0.45546558 0.5821448 0.3567705 0.16427045 0.50371945 0.8302029 0.66401225 0.33836788 0.93552303 0.91220754 0.2093484 0.039417583 0.7413087 0.82761025 0.9678646 0.8898364 0.6005348 0.53005236 0.027841052 0.24665645 0.45961475 0.6285039 0.5572518 0.74263597 0.27976692 0.5649526 0.088142246 0.41366553 0.7501608 0.69340086 0.9906427 0.27789113 0.4981893 0.32953042 0.4406031 0.8569501
justice 0.68420905 0.88244116 0.2035111 0.8733611 0.059762273 0.8885993 0.3290738 0.31458762 0.5120886 0.94069016 0.047781363 0.35223097 0.856572 0.39605448 0.1991569 0.42479417 0.3855525 0.9154162 0.7619344 0.50511557 0.98837054 0.46527752 0.058237832 0.26227432 0.43607047 0.15690263 0.94756514 0.7668489 0.2682872 0.5908045 0.72144914 0.94127893 0.88163537 0.5151922 0.7746526 0.56214476 0.5527039 0.11474196 0.12613766 0.5295336 0.26886153 0.021036902 0.7228392 0.032486595 0.59527683 0.5391938 0.9688147 0.48421314 0.063601434 0.55168796 0.84109616 0.9968493 0.43034318 0.32029873 0.9066533 0.19124213 0.6154289 0.40571442 0.041082364 0.34728846 0.2652285 0.6860911 0.9487905 0.26804718 0.8114659 0.055359818 0.538121 0.07055006 0.934033 0.7663513 0.6579499 0.8238964 0.64751977 0.9689444 0.71395797 0.9246586 0.51713187 0.11706442 0.52817774 0.12687282 0.5924935 0.48249307 0.6225754 0.010046981 0.19484049 0.49133044 0.9505036 0.38360903 0.42437202 0.7146961 0.6037928 0.29892614 0.4108164 0.2176998 0.9660215 0.13063438 0.37183678 0.025838973 0.2217795 0.78047115
freedom 0.20117523 0.0800634 0.47445318 0.0099692345 0.08476616 0.8076259 0.77147335 0.91513884 0.85451543 0.68317556 0.052332856 0.7828486 0.84551084 0.79908216 0.50847906 0.23290184 0.84533 0.72716284 0.9807612 0.15569259 0.22566459 0.21179815 0.7925398 0.18690729 0.06665983 0.9985608 0.024817212 0.83524406 0.36536685 0.84161544 0.5546205 0.90163124 0.926193 0.0090981815 0.07541218 0.25035873 0.6693154 0.8882722 0.45994195 0.6069731 0.18849985 0.8049668 0.96732813 0.26859894 0.49482596 0.08611611 0.5591366 0.5027834 0.14443648 0.44206622 0.33410466 0.52183086 0.5856543 0.008495579 0.761006 0.7130143 0.3662864 0.052935936 0.7549325 0.95517516 0.2401516 0.32352462 0.18381289 0.5769361 0.1548414 0.35619393 0.697013 0.560116 0.38646257 0.4202496 0.5621109 0.005864728 0.07850987 0.8812581 0.07787899 0.7068036 0.92003816 0.27068362 0.37049145 0.5689214 0.881709 0.94190556 0.7395632 0.086619765 0.66915417 0.4103037 0.470701 0.049148392 0.19106214 0.79051363 0.45395884 0.30166224 0.38401908 0.8543995 0.748999 0.27231538 0.11750184 0.25199822 0.92075646 0.58158886
rights 0.5334802 0.5963936 0.36602828 0.80710703 0.5232862 0.1167479 0.12906513 0.53685915 0.9365702 0.3083521 0.86954117 0.7640956 0.24781245 0.036340747 0.10184727 0.7284939 0.19966973 0.37127092 0.50169915 0.72546816 0.11323123 0.4063664 0.4850729 0.54082704 0.8183606 0.1716782 0.80783147 0.6928784 0.55587083 0.69952786 0.41201773 0.13839759 0.6657652 0.5246723 0.6393748 0.33799878 0.90686655 0.58736986 0.08540248 0.44980398 0.75635606 0.79413456 0.49459705 0.89474756 0.26766843 0.4105987 0.8985969 0.89625674 0.68571275 0.85898054 0.088773265 0.864995 0.3206199 0.17833151 0.23936984 0.4179685 0.251192 0.32056758 0.13497849 0.29617676 0.5722838 0.4418537 0.34671876 0.74645215 0.89351 0.7567892 0.3320007 0.74444216 0.15198018 0.13031799 0.34562704 0.80770236 0.24634825 0.06325341 0.13170953 0.858745 0.6337833 0.25320116 0.5552958 0.5275796 0.655436 0.23318756 0.864403 0.30936855 0.6941317 0.016124647 0.37265712 0.3517098 0.54348445 0.07273626 0.7901314 0.2177808 0.67703784 0.8032121 0.56187695 0.74088323 0.6618603 0.3555298 0.8088585 0.29470137
equality 0.57121295 0.74539775 0.3789559 0.3027676 0.459346 0.8179635 0.92992175 0.5450834 0.6614662 0.90327364 0.09854685 0.23207858 0.70890003 0.8237445 0.857029 0.4151072 0.089339904 0.43778148 0.23073459 0.29119647 0.7722676 0.07552709 0.8275812 0.42766908 0.5960639 0.08965223 0.33735907 0.08970092 0.96154374 0.80726165 0.45963275 0.22360255 0.9334551 0.3445966 0.16098443 0.5631644 0.9437741 0.0038302904 0.23812485 0.93844765 0.17108597 0.11324345 0.5701872 0.8618438 0.47710982 0.99456424 0.6791717 0.07407491 0.9928321 0.40789422 0.28740254 0.5578792 0.30430758 0.086457506 0.0014283431 0.44958335 0.8368634 0.57231516 0.9992073 0.28684664 0.28045505 0.15974946 0.16406359 0.2851866 0.79284006 0.9057568 0.97508717 0.23228966 0.8812975 0.3282551 0.11284055 0.8700249 0.63610566 0.16473089 0.42983127 0.2872577 0.7367946 0.45341623 0.9892799 0.05474498 0.35501528 0.48190016 0.50313354 0.31593582 0.72924024 0.8747471 0.9387193 0.80509335 0.8505802 0.5505453 0.8258882 0.3035039 0.39847878 0.316913 0.46738735 0.28557962 0.96161145 0.31284463 0.09804454 0.52681714
democracy 0.057099078 0.11054317 0.2193894 0.46435025 0.43325093 0.79969186 0.73947465 0.4263183 0.3337042 0.31646878 0.7739951 0.052072406 0.012821649 0.7955444 0.4771464 0.13088115 0.23556593 0.93250394 0.859503 0.70978504 0.48222524 0.52032363 0.9752445 0.9657704 0.21526904 0.8111046 0.19724266 0.21353748 0.67609304 0.4050011 0.9315444 0.08900973 0.51152563 0.9185215 0.90411365 0.15652922 0.3666377 0.6191214 0.15939489 0.96802217 0.9147493 0.16695018 0.12115546 0.08540849 0.9094437 0.19362381 0.41628492 0.44885138 0.59901106 0.071735345 0.22675861 0.93149036 0.90841013 0.78129065 0.019401245 0.32700676 0.6279587 0.2751902 0.90958667 0.63388944 0.071906716 0.9090056 0.95776665 0.07771242 0.53236026 0.30336428 0.39283907 0.17965122 0.57807213 0.9579794 0.5030726 0.08291458 0.6200013 0.34022298 0.8559252 0.43467814 0.19283961 0.19110562 0.7687642 0.2655876 0.7672334 0.20588732 0.32168636 0.46548697 0.9431959 0.9317314 0.20687188 0.35821903 0.14939938 0.5099851 0.46058255 0.9007602 0.9300054 0.3835674 0.49173793 0.89623624 0.8067078 0.0036563114 0.32005957 0.42177424
society 0.22971629 0.19957161 0.037784506 0.64336973 0.2625103 0.05234718 0.23097931 0.801914 0.8514892 0.48306623 0.41607067 0.9778537 0.20056465 0.21535929 0.29186717 0.17275731 0.3793656 0.91083425 0.61534786 0.41194654 0.9344108 0.04846423 0.21027617 0.5658886 0.6155526 0.039557505 0.40303877 0.64915395 0.6980705 0.6381399 0.32056323 0.09352013 0.42711246 0.12875444 0.94762367 0.47517088 0.31725916 0.7663041 0.4979486 0.31003404 0.81196773 0.86715215 0.67300814 0.046964422 0.56632286 0.76329494 0.13650301 0.22867075 0.8824951 0.020121722 0.75272715 0.4737733 0.44677216 0.0070965323 0.8193982 0.3598249 0.54076564 0.6773007 0.70262957 0.95598006 0.53133994 0.39971954 0.95370364 0.6421102 0.29815036 0.12646425 0.8425545 0.3621816 0.6604697 0.47081643 0.19892979 0.6016866 0.060683068 0.41334245 0.54661494 0.436047 0.7486722 0.82792497 0.7712431 0.038812947 0.19412877 0.5366075 0.934822 0.83495677 0.8425345 0.3032082 0.4294479 0.47070596 0.15737158 0.03106813 0.9469029 0.24071258 0.2399489 0.08337905 0.92850775 0.5797371 0.66703683 0.91157687 0.34562016 0.6215073
culture 0.038799454 0.18677253 0.8312458 0.76676834 0.35064268 0.37681064 0.53355443 0.00024100469 0.24124433 0.2082318 0.25048295 0.8059058 0.27967384 0.19152132 0.50426346 0.86564505 0.2413497 0.07853624 0.35640472 0.7476518 0.55069053 0.8167934 0.95959216 0.7926625 0.6038031 0.4933416 0.040069085 0.98432195 0.38348112 0.15222822 0.6667088 0.2842883 0.5857783 0.5867679 0.44572982 0.83611864 0.26496705 0.4486326 0.5376921 0.6636247 0.78397185 0.39480728 0.64604694 0.15061095 0.9326481 0.38305882 0.7295214 0.020341082 0.20518714 0.48708254 0.87825245 0.5272552 0.9298705 0.4837969 0.4904491 0.11974679 0.80265623 0.24696541 0.8996125 0.91082424 0.94331014 0.5202305 0.6770938 0.7785159 0.13101462 0.6009572 0.034297902 0.49756607 0.15484267 0.18292293 0.36504757 0.43243718 0.6231724 0.07442842 0.50369173 0.18262513 0.57397515 0.6374046 0.55670923 0.7382955 0.33560926 0.7651066 0.4327671 0.4841845 0.6481021 0.018358383 0.6539942 0.61858517 0.30984712 0.085794285 0.09093545 0.92322373 0.6892793 0.12710261 0.35672316 0.592483 0.8355717 0.043660928 0.23663314 0.889749
art 0.009165551 0.2013991 0.9590242 0.61340183 0.26167136 0.06699109 0.028191341 0.24474508 0.8814858 0.41591364 0.7203334 0.918285 0.40804046 0.19127737 0.5171179 0.9080837 0.8043744 0.06582984 0.6925728 0.5718975 0.9074632 0.12248141 0.5340361 0.8794627 0.41002378 0.48199493 0.07046068 0.27814364 0.32450664 0.9451224 0.28266737 0.46086875 0.6713044 0.16218337 0.4864424 0.73853904 0.8668552 0.62625927 0.6690535 0.12628347 0.9457765 0.13257408 0.7746729 0.2648163 0.93359315 0.71995956 0.7538137 0.21905917 0.44303998 0.61781317 0.76997364 0.103959374 0.9623653 0.89022064 0.27034858 0.8227602 0.5183239 0.46180648 0.3144341 0.58096856 0.7298891 0.4109329 0.6292192 0.6993129 0.7111218 0.051966097 0.8597478 0.45825332 0.2624161 0.2417645 0.4830141 0.8868315 0.37834758 0.74972576 0.09681873 0.4760567 0.99168617 0.7704378 0.2105285 0.5014415 0.23362476 0.40956092 0.780084 0.7712248 0.22810037 0.9222233 0.59256816 0.3799243 0.5019356 0.60507125 0.5598905 0.48640504 0.5049328 0.17641191 0.8127329 0.5417603 0.13107987 0.7661571 0.932444 0.9473069
music 0.36901772 0.13551687 0.51839966 0.11260923 0.93398744 0.18357962 0.25276586 0.40663654 0.38316447 0.7946629 0.45631683 0.17076826 0.2672099 0.5091134 0.14745392 0.61165565 0.5657473 0.7147023 0.9377046 0.9122546 0.9460756 0.2447156 0.1315653 0.3022767 0.89508516 0.97205347 0.85932493 0.110017724 0.947428 0.42335802 0.009310291 0.44239375 0.04606917 0.5438779 0.33855402 0.47343493 0.6131704 0.8688011 0.6619016 0.43404886 0.81942785 0.90558213 0.11975997 0.53193295 0.28451195 0.047061197 0.6685467 0.8627708 0.16290265 0.81241363 0.85339576 0.91434044 0.26528507 0.9039531 0.32066277 0.552338 0.05050747 0.04388109 0.7203732 0.44447997 0.25629237 0.19041349 0.66995347 0.00040154404 0.80589116 0.079249606 0.19148962 0.3862364 0.48485875 0.3549951 0.32071218 0.963916 0.6415797 0.023432955 0.4301759 0.8750087 0.30145618 0.09455635 0.75838476 0.60601383 0.5703125 0.05357656 0.14049901 0.6225494 0.20782384 0.5040701 0.5448817 0.2835072 0.9484252 0.8424641 0.7223735 0.07799387 0.10613002 0.49278134 0.16071334 0.97826546 0.15852024 0.48746783 0.36412105 0.6393864
literature 0.12903641 0.43031642 0.27470502 0.8877515 0.04058571 0.9137275 0.83299416 0.2975707 0.78929067 0.031213561 0.96686554 0.52659494 0.30328104 0.36258322 0.066405356 0.9893495 0.039291944 0.6549071 0.44273594 0.9489162 0.24599974 0.53208685 0.48235622 0.70286644 0.06801023 0.19378912 0.21456482 0.7381508 0.1891387 0.57349175 0.21524382 0.86162496 0.94218546 0.518493 0.35230887 0.23405777 0.049781002 0.2685001 0.6542358 0.53361696 0.94404125 0.39627725 0.69386333 0.48932275 0.5125762 0.2677743 0.45495078 0.470785 0.7066425 0.94064 0.32932127 0.04220047 0.49629512 0.5444613 0.16844055 0.7604646 0.9849291 0.94577473 0.19710603 0.87536323 0.70449364 0.45384657 0.54061097 0.8496002 0.48013493 0.37320736 0.49324748 0.5791298 0.18907766 0.90090775 0.67418694 0.6332689 0.09949622 0.60417396 0.12096066 0.078697674 0.5273109 0.40278554 0.58881027 0.08922217 0.43098307 0.17478672 0.98710006 0.5611502 0.6874369 0.3254183 0.094738916 0.97587085 0.28625903 0.4238082 0.6498639 0.024697298 0.8102591 0.5365782 0.2782172 0.061607987 0.16249841 0.89503384 0.68602425 0.24990173
philosophy 0.06560077 0.6906153 0.5724077 0.40451953 0.36361146 0.21681428 0.6696113 0.970668 0.17571525 0.59711665 0.42418507 0.4466887 0.2541473 0.8251349 0.4852556 0.54340583 0.3047609 0.18180847 0.08591039 0.71411914 0.19623429 0.69007534 0.39037645 0.4157748 0.46917748 0.3677085 0.10061998 0.30963182 0.6637344 0.6657844 0.2862243 0.46010262 0.19344723 0.21037208 0.023047088 0.8967466 0.21070667 0.22753388 0.27960142 0.12740807 0.63926286 0.07514295 0.13420242 0.64475673 0.3396606 0.70794785 0.5574247 0.25602117 0.65082794 0.11627368 0.5364104 0.4371481 0.2678736 0.604005 0.8713336 0.9989047 0.60776275 0.40470588 0.2252071 0.25709608 0.47945496 0.3672777 0.91381454 0.36829546 0.3734446 0.38353452 0.8366202 0.6507883 0.6141688 0.334143 0.8179042 0.038363863 0.87079716 0.5127499 0.39825022 0.4971673 0.66741556 0.012765426 0.8715519 0.44673952 0.34296653 0.13824557 0.43946537 0.49632278 0.4036467 0.6786601 0.42089653 0.96141756 0.5992775 0.80747795 0.109355904 0.3972913 0.3368477 0.5694824 0.86111355 0.07833822 0.0725748 0.8503177 0.21285008 0.66875327
religion 0.54287815 0.8328936 0.12508892 0.12978296 0.55681837 0.94637865 0.41499776 0.3269421 0.60668933 0.9304486 0.83692783 0.99548364 0.022568583 0.11285815 0.60946774 0.8205764 0.28524435 0.23921108 0.7869758 0.056381855 0.36938265 0.50580925 0.5603487 0.72861516 0.35484573 0.61268437 0.5853754 0.5476161 0.6404833 0.25944918 0.08464875 0.11927167 0.22458239 0.50019795 0.8404428 0.70129335 0.7890406 0.35097563 0.40465373 0.39368188 0.19187318 0.06121666 0.5909161 0.9892167 0.1668297 0.04668482 0.77953166 0.252586 0.8296438 0.7039367 0.9456735 0.40892723 0.66196984 0.46485478 0.6305887 0.4495989 0.18863225 0.50789744 0.5285842 0.81060386 0.7355207 0.6637916 0.11338709 0.7206163 0.5003052 0.89409953 0.9198709 0.055156592 0.8206416 0.03769739 0.36716962 0.5423 0.1481008 0.7463138 0.008354704 0.16859905 0.58079684 0.71438754 0.9166431 0.70549667 0.6717793 0.39434114 0.0012844255 0.12015926 0.53455454 0.6751299 0.41744828 0.73067904 0.52186227 0.07417619 0.19201624 0.83999825 0.72491276 0.894762 0.11755725 0.9902225 0.20940672 0.011779876 0.99742293 0.2810739
spirituality 0.6680195 0.17668231 0.5802285 0.904035 0.32018116 0.670254 0.18790358 0.6247954 0.33645034 0.21120825 0.31318206 0.17884107 0.9019161 0.39718688 0.24527931 0.44840783 0.32053617 0.7444193 0.9712199 0.43803367 0.8610334 0.5658631 0.15723567 0.69062275 0.51343447 0.6506065 0.8896874 0.44043458 0.90117764 0.750669 0.48860493 0.60322213 0.32558113 0.9835973 0.6673512 0.043846853 0.32662192 0.62331444 0.056333277 0.023884192 0.45002425 0.33269018 0.4382986 0.26269332 0.16471775 0.68914336 0.51457113 0.20015422 0.31958944 0.5918079 0.07222935 0.14745301 0.07324561 0.8123173 0.7524092 0.75331295 0.71632534 0.66938543 0.47699192 0.64227813 0.038361553 0.62146443 0.7778777 0.50035834 0.35751334 0.27742675 0.64280206 0.6928012 0.8709676 0.3423341 0.7697723 0.5613558 0.88283646 0.5278121 0.5176298 0.5778771 0.7493154 0.9646905 0.07356335 0.053434603 0.93755037 0.52987564 0.61490303 0.4824236 0.09365745 0.76808935 0.7472246 0.31170332 0.30623925 0.8378414 0.07235726 0.8811051 0.25666168 0.59298474 0.9359942 0.6781225 0.4144298 0.6895342 0.34397963 0.27725843
psychology 0.9966833 0.75079024 0.64471996 0.35528964 0.04916083 0.031056875 0.5541813 0.76203275 0.5373792 0.8407851 0.033426534 0.3667521 0.2370704 0.44727296 0.07237639 0.95413166 0.2232554 0.9223078 0.42589316 0.9855241 0.5540584 0.93083286 0.005348989 0.7482388 0.90305066 0.13972057 0.09612585 0.42457262 0.9336789 0.54238653 0.52745646 0.14112611 0.0007895111 0.8101401 0.087574564 0.6338498 0.91461647 0.20865192 0.66527283 0.078698575 0.6037551 0.16393173 0.73595357 0.3012313 0.463391 0.59943056 0.17127341 0.7416378 0.30264035 0.6623719 0.15828305 0.6881177 0.12818807 0.4253565 0.24720608 0.74837524 0.262035 0.8817173 0.8918202 0.19644132 0.61384594 0.087717645 0.3915371 0.71332175 0.65942323 0.62470067 0.28254086 0.37802494 0.10294615 0.7190228 0.5038888 0.7087656 0.24894352 0.3244382 0.33421534 0.02574241 0.34104788 0.80330455 0.8972985 0.51821834 0.4555017 0.030824618 0.87920433 0.013010213 0.9447501 0.48921624 0.3419345 0.9242184 0.024390994 0.5814249 0.54893255 0.2193204 0.42888743 0.652264 0.7271312 0.0007168587 0.9368534 0.16452537 0.23358044 0.26347345
emotion 0.037820138 0.12305212 0.98634994 0.31521675 0.11530109 0.10699126 0.71945995 0.85456866 0.2569523 0.020909512 0.22309002 0.05651569 0.10339493 0.43150812 0.22991838 0.51594585 0.25349376 0.9405373 0.905944 0.5668061 0.354424 0.38114688 0.41185227 0.7275793 0.451639 0.8567299 0.9440948 0.33594614 0.56069446 0.095056534 0.20046905 0.41346577 0.20620272 0.8765605 0.15828626 0.45566082 0.60569924 0.6918639 0.38306937 0.8690991 0.56831914 0.43950778 0.06724063 0.46468946 0.8207358 0.614541 0.83216244 0.49401167 0.118461706 0.013639846 0.30321956 0.6979905 0.7902599 0.29575282 0.49565393 0.42111892 0.4105228 0.23134871 0.1363711 0.19668856 0.05533239 0.19813074 0.009200898 0.6272584 0.3163754 0.9731447 0.19371705 0.34582856 0.35784116 0.008451496 0.83920795 0.03199446 0.9401798 0.89207435 0.5355219 0.54359555 0.6537779 0.38705 0.6472223 0.04476839 0.054047626 0.45723042 0.5496223 0.8878176 0.10466063 0.8226479 0.21004733 0.39408365 0.31660244 0.40015528 0.1504955 0.5035701 0.8016426 0.441534 0.49061358 0.8487676 0.7060581 0.4904544 0.25769565 0.88492674
behavior 0.5770204 0.22114761 0.26911974 0.8031331 0.04414556 0.9920922 0.13035168 0.79606855 0.39477533 0.49221617 0.8806506 0.41291118 0.53749377 0.04929966 0.0023474738 0.24479987 0.6805831 0.12126489 0.11376196 0.4109606 0.64783704 0.712072 0.17845067 0.079588145 0.940397 0.26066637 0.8533465 0.8634915 0.77252257 0.16883361 0.8218015 0.7692506 0.59672296 0.33720204 0.2625086 0.12188921 0.50975704 0.58526087 0.359339 0.47535908 0.36351445 0.64100605 0.9012592 0.16392027 0.3814088 0.1408686 0.6249438 0.7288705 0.9319127 0.27887192 0.9502112 0.06326267 0.6030139 0.05713272 0.8937742 0.52980906 0.66934836 0.8315739 0.15031062 0.038591564 0.87888116 0.31493324 0.12897891 0.46846125 0.59830606 0.030970603 0.27489567 0.032799874 0.42033538 0.89510006 0.9826524 0.6370475 0.1616377 0.9058494 0.5162478 0.15374932 0.92172664 0.75746906 0.73170525 0.7091807 0.20033982 0.21100669 0.688293 0.21972275 0.4386717 0.78200185 0.78395253 0.45326176 0.79218996 0.8386218 0.65477574 0.22842585 0.2740118 0.31484115 0.11680411 0.27315962 0.20951922 0.45532876 0.90843755 0.10448032
sports 0.72026795 0.687283 0.0957542 0.92257243 0.5684722 0.3637255 0.75653857 0.25736547 0.6935098 0.039711207 0.83940804 0.44817084 0.63669294 0.22123782 0.6770737 0.7722403 0.4732132 0.6177269 0.45632592 0.89409137 0.4978692 0.84180874 0.8013521 0.41050482 0.2300845 0.40608212 0.82621735 0.22763254 0.52443635 0.80609673 0.35347748 0.64220965 0.24563158 0.10927945 0.79438424 0.098968625 0.2713814 0.8551094 0.34646928 0.97304535 0.97973436 0.268276 0.040978223 0.7050633 0.4509865 0.100752845 0.7075228 0.03117491 0.8701967 0.13865253 0.12731189 0.1756723 0.96026635 0.69316936 0.8013715 0.39763498 0.33631274 0.234484 0.48064804 0.55182874 0.63177484 0.2571185 0.94865406 0.1697585 0.9656532 0.014856122 0.48112568 0.33336782 0.4491234 0.5706646 0.43558916 0.41484684 0.7327234 0.68587625 0.83327127 0.24995898 0.6095285 0.58519477 0.3697378 0.48605755 0.31378216 0.14184439 0.2138012 0.10551365 0.6830696 0.6607274 0.95060635 0.7296784 0.052045837 0.88424516 0.8626752 0.44332033 0.58586305 0.97607833 0.53230435 0.90532184 0.083038755 0.19105187 0.44075495 0.5847568
game 0.81622785 0.9882621 0.3888515 0.047415636 0.8011715 0.6043807 0.19854286 0.49482846 0.7423102 0.7704118 0.4996184 0.30521452 0.9737426 0.6633626 0.40823752 0.28046322 0.731103 0.24218345 0.17170998 0.5298339 0.2899874 0.6289051 0.117938675 0.6549411 0.28329653 0.00024293443 0.12693606 0.9336154 0.86735463 0.23360904 0.77837193 0.6085716 0.9709047 0.37360567 0.6814606 0.06353572 0.39624736 0.96381766 0.5389809 0.2878795 0.12027096 0.70352834 0.64485604 0.3739387 0.9509413 0.022202812 0.30372384 0.9210695 0.32093543 0.25225285 0.5342204 0.82380176 0.10314676 0.9430207 0.79507285 0.18125026 0.71200794 0.3849587 0.40229467 0.7832901 0.9627848 0.12665588 0.42063025 0.4809416 0.3763118 0.36318913 0.05226867 0.68553865 0.43621442 0.1947938 0.8160335 0.80256075 0.48639163 0.29845065 0.6380927 0.28815213 0.23600793 0.73051465 0.04032524 0.09476847 0.006788174 0.1529432 0.06899001 0.99580234 0.28880996 0.14926802 0.24099626 0.9361256 0.5201602 0.3648181 0.87339145 0.39499027 0.33500856 0.20728253 0.37779683 0.31668437 0.67730397 0.2895827 0.57719976 0.06589217
competition 0.19128916 0.40740526 0.93694925 0.37725198 0.6640741 0.25508723 0.12703358 0.0585366 0.30541348 0.15766102 0.17401044 0.7607593 0.015838072 0.5578101 0.37946138 0.50655 0.5628302 0.3133677 0.29510885 0.73340183 0.871277 0.19258164 0.09761876 0.8977958 0.34989548 0.5513174 0.35954314 0.12580234 0.5893316 0.5251409 0.20299356 0.45186904 0.7969475 0.5904261 0.096917324 0.5480215 0.7027383 0.7927034 0.6291176 0.15265816 0.71017325 0.6773418 0.024426883 0.41174766 0.33295023 0.6694121 0.21613581 0.59087193 0.913206 0.7978024 0.9214577 0.97850597 0.010670127 0.6227413 0.41283938 0.8598545 0.2518147 0.9810295 0.61370796 0.7935374 0.08559955 0.18345788 0.75840366 0.021986522 0.81687796 0.013949019 0.65711886 0.36509392 0.61149484 0.6960314 0.3424752 0.107962444 0.06964587 0.58893603 0.52065533 0.74220103 0.5097355 0.4224458 0.39808717 0.026446903 0.3355572 0.97602016 0.8735556 0.32937807 0.5877954 0.8472968 0.44127434 0.017957864 0.07451046 0.5103927 0.9694394 0.6932095 0.07091619 0.18936087 0.77132314 0.8414398 0.61769456 0.6444232 0.02833745 0.82853025
winner 0.7882752 0.25903514 0.7086767 0.21485461 0.04033016 0.20113654 0.17862888 0.337748 0.4184495 0.5085389 0.47675386 0.27067462 0.029170668 0.60510164 0.39574483 0.29867217 0.86694103 0.7467433 0.85776556 0.4949828 0.13093126 0.6962214 0.20607378 0.44122967 0.06500079 0.8253084 0.12594064 0.9030975 0.8642306 0.46458277 0.7443682 0.6194451 0.8030757 0.4318051 0.7858085 0.46245682 0.9409658 0.4863721 0.46261927 0.78507185 0.82157767 0.55448914 0.17979781 0.46775824 0.9680725 0.7529862 0.8111626 0.0328255 0.46785948 0.6466211 0.8300327 0.049273655 0.85243887 0.54840094 0.19731396 0.31725523 0.28192955 0.53085905 0.05168568 0.15853615 0.81269306 0.13260399 0.23339628 0.4533706 0.5171209 0.7636105 0.4473324 0.7898646 0.61834633 0.11309974 0.15633143 0.4370337 0.3968894 0.7435443 0.5807371 0.38813308 0.17076029 0.2268371 0.575501 0.42343882 0.5149275 0.17067744 0.6629062 0.85253876 0.25793952 0.49151424 0.97552735 0.33324173 0.59504634 0.0901957 0.606015 0.08963177 0.9592354 0.71566266 0.7881598 0.70410436 0.589729 0.4499128 0.8583734 0.9568357
team 0.49903616 0.93153507 0.5833329 0.5383842 0.45448273 0.20928776 0.003719661 0.24150623 0.5097232 0.37995994 0.44848523 0.9806482 0.35027236 0.45218295 0.13351555 0.047957733 0.7754095 0.5706832 0.7607048 0.1498628 0.5718288 0.25364247 0.22806181 0.011526014 0.13034073 0.30926812 0.11687876 0.98585844 0.30863264 0.13032395 0.19908231 0.5877032 0.06404352 0.86243415 0.9614997 0.24674742 0.45009527 0.022134451 0.64071023 0.41392606 0.27005845 0.20683712 0.65402305 0.41621703 0.17965929 0.6891091 0.5650723 0.8586721 0.1174759 0.7856666 0.6735168 0.11501094 0.6948207 0.44154727 0.9449848 0.14161135 0.6428334 0.38198003 0.95681465 0.3299749 0.9621859 0.90148586 0.27038324 0.8035418 0.9956042 0.25266302 0.43677717 0.52018076 0.29493114 0.01526484 0.22012925 0.28193688 0.4435997 0.17110248 0.87325436 0.7049111 0.08520048 0.6500924 0.6536565 0.95622116 0.0030208714 0.24793245 0.9277915 0.9321339 0.7205864 0.76576334 0.09148296 0.51387584 0.23158298 0.18121804 0.8103033 0.13503814 0.46865162 0.93857825 0.18583205 0.9779934 0.99428797 0.55561715 0.17014274 0.3161049
strategy 0.42449284 0.30932423 0.28063557 0.9722297 0.15336482 0.7333279 0.00041028945 0.59618264 0.915943 0.2879341 0.18552597 0.6516798 0.7126014 0.68803054 0.3193169 0.2522024 0.9559188 0.9232995 0.4573166 0.84619385 0.45232347 0.424389 0.15676294 0.42640606 0.53741693 0.022504328 0.44411302 0.7813562 0.6800461 0.635157 0.90955544 0.01803201 0.5570476 0.78734887 0.5413354 0.32389554 0.13625057 0.88756305 0.4707624 0.8781152 0.58585215 0.67419213 0.80426115 0.65915555 0.39805484 0.5136334 0.8030455 0.37365028 0.38812146 0.09569012 0.91458446 0.09103631 0.64820915 0.41319448 0.40561938 0.67955184 0.06709373 0.5937058 0.7720318 0.82821274 0.1705304 0.89741904 0.6561461 0.8818548 0.48528072 0.5420334 0.9190383 0.89990956 0.4481609 0.27441263 0.39317045 0.38776433 0.28686687 0.2685796 0.86106294 0.06986192 0.6776112 0.17282005 0.3445059 0.061543033 0.26997364 0.76842105 0.8850153 0.22152716 0.46354783 0.47032404 0.8735753 0.762799 0.5130772 0.6707472 0.84735507 0.009538954 0.40289003 0.9072432 0.74031305 0.5428414 0.52964455 0.3477701 0.5205205 0.6553832
tactics 0.41836303 0.7141532 0.8612322 0.15468484 0.45154703 0.40802008 0.68746483 0.24986747 0.6402509 0.87748927 0.4181316 0.9110157 0.99316376 0.10609205 0.23305319 0.9503797 0.9583277 0.09770728 0.0149985 0.16110003 0.9960128 0.17999962 0.5025476 0.8484177 0.02040161 0.60448897 0.27702546 0.8623349 0.28346115 0.6867557 0.6742196 0.22149354 0.0347992 0.40924957 0.28919315 0.8089777 0.8003642 0.45702395 0.60651225 0.6042595 0.82715815 0.42500243 0.27544668 0.2650349 0.5361923 0.4491482 0.44012076 0.09113734 0.71860373 0.21373668 0.19695362 0.41275832 0.22777835 0.58385825 0.37146333 0.44891173 0.53716934 0.20353553 0.15575162 0.8804219 0.4337237 0.4120936 0.03561215 0.4979763 0.5541697 0.5588409 0.7070312 0.17748183 0.25222313 0.81073046 0.9471706 0.13593274 0.49764955 0.21417625 0.060073167 0.32550335 0.14368762 0.7099331 0.53372544 0.14383447 0.009241588 0.808157 0.1761944 0.60621667 0.3369219 0.58548594 0.31565362 0.08693956 0.22295001 0.18805857 0.42801934 0.65828377 0.26380607 0.012069935 0.51893735 0.6057595 0.9628705 0.5894708 0.47117257 0.57340163
skill 0.9279006 0.82837814 0.32297873 0.23725437 0.26263362 0.50442106 0.74404943 0.5032192 0.067796394 0.7235807 0.80597013 0.28949785 0.66412574 0.4265919 0.8891193 0.8452256 0.525432 0.69150555 0.8833497 0.49571702 0.31325075 0.75366616 0.22006625 0.38853115 0.86572725 0.72442234 0.403811 0.21474451 0.3559684 0.28410414 0.17608929 0.7433329 0.2520699 0.45416746 0.38585946 0.98207736 0.39109224 0.07998248 0.08982575 0.59075373 0.59936357 0.418759 0.4318437 0.05393258 0.5165465 0.50473946 0.14954932 0.10383938 0.12357249 0.10102825 0.6097082 0.19648266 0.25143015 0.17357214 0.9578353 0.8546175 0.23049484 0.3275663 0.20989284 0.49187595 0.019610532 0.671368 0.52315813 0.8986389 0.16439268 0.8041093 0.791961 0.12718119 0.3985592 0.17015263 0.2547205 0.26324618 0.5562364 0.41141093 0.9477328 0.12637015 0.9736921 0.23063864 0.77287394 0.33896992 0.1430814 0.8578892 0.3088609 0.6588554 0.5664437 0.4717563 0.49581948 0.73223794 0.08777291 0.66818064 0.8958121 0.057788197 0.14065334 0.71663195 0.43728164 0.40354863 0.13696663 0.50677 0.12654531 0.47662047
training 0.7636153 0.25826436 0.48078617 0.99201596 0.6866504 0.84135675 0.4148476 0.76786095 0.04050917 0.122911185 0.2030706 0.40195194 0.8457449 0.34626606 0.6546212 0.7093143 0.58618236 0.35724196 0.57705337 0.3422656 0.08387374 0.992804 0.12718245 0.072348386 0.87853074 0.30183467 0.650297 0.32900572 0.39145428 0.26211298 0.343044 0.4107004 0.72041607 0.5115362 0.9435652 0.041880395 0.5030683 0.58422476 0.920197 0.049158525 0.57349956 0.85362995 0.24192773 0.87629235 0.01904341 0.73245466 0.9331132 0.65719765 0.43902925 0.044881016 0.9201138 0.47029623 0.028996745 0.68982106 0.48183724 0.12434532 0.21427181 0.06449068 0.57429355 0.6220295 0.5057423 0.81710213 0.8610088 0.61562437 0.01275648 0.69522965 0.4179992 0.5655575 0.6490806 0.35023662 0.9170985 0.13397487 0.6715118 0.00435958 0.9246511 0.11250413 0.09488423 0.33300763 0.3735663 0.21430007 0.58512163 0.4429141 0.03417559 0.31965205 0.8104329 0.68970156 0.72487086 0.6981169 0.31097302 0.09966392 0.2724672 0.8317853 0.9804708 0.493847 0.009700355 0.14004481 0.32208058 0.5785853 0.07509365 0.9433573
exercise 0.36508366 0.91258425 0.7805218 0.75543725 0.60671955 0.6267838 0.63800323 0.6287214 0.5537282 0.986414 0.73229057 0.77694637 0.8724628 0.21563977 0.08380416 0.48289445 0.5140807 0.8291818 0.44378358 0.57085305 0.52707094 0.038202785 0.6152149 0.8280433 0.15750055 0.59433174 0.5936105 0.16418496 0.12346357 0.98005193 0.39371917 0.22742173 0.17132455 0.6676017 0.6094453 0.6435521 0.08800603 0.8935346 0.3892664 0.3133694 0.46236145 0.39006606 0.863577 0.92926097 0.3034532 0.8639358 0.7815231 0.93080765 0.24575031 0.57695913 0.2745446 0.8240945 0.0053241905 0.56481916 0.33920342 0.32268372 0.64490634 0.8514845 0.6091954 0.85317296 0.26459712 0.51950186 0.45053655 0.0116449 0.55681217 0.6615243 0.5919144 0.7362799 0.57133955 0.06675026 0.11644553 0.5964746 0.2749792 0.07964513 0.42960274 0.5543226 0.328746 0.7204337 0.64377064 0.33281836 0.7548725 0.64869505 0.6374454 0.5534277 0.011389668 0.69650716 0.3760418 0.9426097 0.81798476 0.58769447 0.25218198 0.2037174 0.34038484 0.47656795 0.2960655 0.5149295 0.16537042 0.9777128 0.10792456 0.93194413
travel 0.91357803 0.52536047 0.72491026 0.4360483 0.63003457 0.34057593 0.30115902 0.5782298 0.49812967 0.5795364 0.28666058 0.36695784 0.08389796 0.052276373 0.25345713 0.07424686 0.10377471 0.8129284 0.0388737 0.6589428 0.27255774 0.8715457 0.4849923 0.30557647 0.5176389 0.381958 0.5643011 0.114532866 0.9969905 0.42555588 0.34823063 0.71020985 0.3638994 0.8332743 0.45427072 0.7195584 0.10745322 0.84611917 0.735718 0.21171677 0.14528601 0.31629235 0.9760706 0.2568316 0.4561272 0.030020226 0.39722753 0.57132 0.9531246 0.51673603 0.81910735 0.54712766 0.040785015 0.31500828 0.5755495 0.95059395 0.8591304 0.22835562 0.22010984 0.20117296 0.9224989 0.85266614 0.77488345 0.39273512 0.5043807 0.46433175 0.25339812 0.50502807 0.030496547 0.13181037 0.8865896 0.7516798 0.4228684 0.51715034 0.36999887 0.7407799 0.7841872 0.7632852 0.7226117 0.20450434 0.33797 0.46984544 0.330793 0.7549402 0.3293535 0.13823208 0.39904046 0.9799144 0.22588141 0.61215866 0.43297306 0.07102457 0.4878766 0.70216435 0.51321995 0.8721061 0.288937 0.08624917 0.93656564 0.37819636
adventure 0.5764055 0.79200315 0.32431367 0.7161645 0.13541885 0.29129374 0.14471063 0.81123054 0.22264923 0.71740353 0.9432984 0.5277722 0.54002917 0.46103358 0.32589015 0.47565502 0.6028075 0.9859916 0.9377646 0.86215293 0.88913053 0.4678492 0.6574443 0.89506674 0.39295077 0.9617625 0.41578606 0.6010827 0.7098047 0.95059204 0.24461627 0.746131 0.5208156 0.26855713 0.77660686 0.55222225 0.66097385 0.32290107 0.48127395 0.6173543 0.4049108 0.19837254 0.9616405 0.5114675 0.7339204 0.4110472 0.35513178 0.4071643 0.40919665 0.5441801 0.54346985 0.49715382 0.13478579 0.49607548 0.1691039 0.12613578 0.93264574 0.60495 0.65949005 0.40179366 0.9089809 0.6379305 0.76916987 0.36856246 0.9600119 0.8204613 0.8539485 0.17219427 0.27096322 0.2856266 0.27090922 0.8554082 0.031884797 0.07609999 0.27391487 0.19987297 0.23185961 0.7979432 0.5631266 0.0057706614 0.42932278 0.40788493 0.11394527 0.6761418 0.7020972 0.7208932 0.7284709 5.2826934e-05 0.9539208 0.81420875 0.9039817 0.015643295 0.9338588 0.8097885 0.8372191 0.093287386 0.73877805 0.9599167 0.6785473 0.5705614
exploration 0.94562966 0.44293714 0.5992936 0.4763383 0.93284625 0.076084726 0.5011197 0.6869524 0.79190654 0.58301866 0.9089177 0.94199145 0.06431922 0.40237054 0.023459021 0.32941666 0.5368682 0.9107949 0.84655434 0.12749973 0.09303038 0.5892673 0.53211796 0.26637763 0.8994531 0.92736644 0.40261143 0.89030254 0.3839489 0.7368168 0.47594222 0.12258316 0.9279342 0.4540966 0.73448706 0.36717382 0.01888088 0.100530356 0.4962195 0.68996435 0.33473533 0.69548845 0.6986356 0.7039359 0.49252185 0.9148862 0.4891965 0.4502652 0.19938082 0.3076551 0.042334493 0.63353527 0.24853574 0.30415526 0.77081454 0.32722118 0.24219589 0.16905774 0.7748584 0.12970626 0.45375377 0.5069301 0.6873899 0.6332835 0.8107207 0.044751436 0.29644072 0.2801341 0.14601691 0.28917825 0.3097653 0.52188444 0.66370445 0.3811005 0.7194702 0.33616534 0.29028368 0.54118806 0.02371636 0.079789124 0.41796955 0.9429127 0.7215118 0.08812657 0.846318 0.73230076 0.61094654 0.82029295 0.40410984 0.22150105 0.5120234 0.5488418 0.5383264 0.5650738 0.9487049 0.90224564 0.87571704 0.8014168 0.9434281 0.09849464
discovery 0.26512325 0.49505594 0.8465345 0.5051657 0.7480347 0.1389599 0.2524138 0.7317761 0.164734 0.35135594 0.26486626 0.34986168 0.7083241 0.36784717 0.55526334 0.09993187 0.8050177 0.36988863 0.6485342 0.7253896 0.20966092 0.88467497 0.6162242 0.42872515 0.18233518 0.9423009 0.7550682 0.20802456 0.33771077 0.80967426 0.69567764 0.76578426 0.4412011 0.71647626 0.3864937 0.21126291 0.632677 0.9760139 0.31060097 0.4609696 0.6740014 0.5415063 0.8434278 0.7617427 0.058297206 0.99842125 0.7524024 0.86390334 0.65119773 0.85628515 0.11238298 0.34773785 0.8764209 0.20165521 0.0782421 0.78811896 0.8354862 0.16265222 0.854346 0.6867678 0.5200827 0.8302502 0.41924924 0.19399396 0.28485268 0.505164 0.53133076 0.80558085 0.79135275 0.58136654 0.7807855 0.19177346 0.050064526 0.8736338 0.07555449 0.24668843 0.69531894 0.40944794 0.876314 0.2979798 0.011871346 0.30065563 0.57807505 0.3759384 0.5348728 0.8765981 0.91248506 0.26597407 0.46214047 0.549144 0.9491125 0.9986173 0.23540725 0.72697985 0.37803108 0.008108197 0.009252522 0.460566 0.48833492 0.022569697
ocean 0.68692744 0.2940034 0.55989313 0.3009191 0.16713431 0.40717375 0.23227337 0.534801 0.19882853 0.508406 0.15737851 0.67097473 0.75393766 0.11039423 0.4678024 0.0708717 0.59818244 0.2644043 0.5276244 0.517461 0.9243544 0.54908323 0.58299845 0.4016531 0.94907963 0.7771859 0.28540528 0.8442096 0.43239635 0.82866716 0.8228881 0.18887019 0.7011411 0.29064298 0.29749268 0.29634807 0.72556823 0.22982605 0.00090583524 0.71523684 0.17118475 0.1044824 0.23751612 0.37990052 0.47590634 0.04457004 0.9705733 0.7160631 0.32319406 0.31869724 0.44854254 0.62624484 0.14637306 0.18892981 0.8594346 0.2562549 0.380195 0.87127185 0.6631478 0.34171188 0.68369955 0.019683216 0.7356427 0.48701605 0.8131822 0.95463765 0.9257885 0.90926504 0.51216996 0.3601421 0.46503532 0.689896 0.8839978 0.20698631 0.91819316 0.81518024 0.978856 0.88025177 0.27993733 0.10595591 0.112241074 0.29122332 0.6141837 0.80432034 0.8992503 0.62375337 0.0056313127 0.18631677 0.09972621 0.36332446 0.501351 0.043397177 0.348478 0.17917967 0.64707017 0.46427238 0.49531764 0.4276918 0.9560197 0.21473512
mountain 0.51666427 0.73601735 0.5568444 0.9290209 0.37796834 0.4636758 0.088522315 0.60899913 0.28821197 0.16030905 0.5445313 0.53231025 0.07587164 0.6982154 0.6237722 0.18901728 0.46943486 0.7203229 0.52943575 0.39548907 0.32233846 0.6103939 0.93910867 0.6717448 0.0747459 0.46068498 0.89082414 0.094462425 0.9888757 0.9490694 0.07827448 0.9334133 0.3631326 0.84470916 0.41838333 0.44085512 0.6342431 0.7744774 0.03378915 0.593156 0.18673299 0.34594953 0.34796867 0.46906033 0.33413643 0.107361116 0.14562874 0.033437986 0.4702491 0.9544477 0.115675226 0.9462645 0.73336154 0.6374988 0.64527774 0.8267276 0.10691986 0.5047543 0.69709116 0.5868204 0.83277905 0.07227171 0.69070107 0.53402776 0.37916085 0.340275 0.6208326 0.8909954 0.49617592 0.8247232 0.40215638 0.10239446 0.061505735 0.05133437 0.38015014 0.33723775 0.71793705 0.7428215 0.050853968 0.22112326 0.27426186 0.547612 0.14451523 0.13394122 0.9437889 0.8042029 0.1806549 0.4065678 0.355622 0.79100406 0.5102129 0.12784974 0.73899204 0.396888 0.26292425 0.37549862 0.49775657 0.3431155 0.24190578 0.39850202
forest 0.01917291 0.77249783 0.1709449 0.043904614 0.6536987 0.77393615 0.8138291 0.49350917 0.20536819 0.7372277 0.69971305 0.24627073 0.90340775 0.10437146 0.98268825 0.8602478 0.68789864 0.9387499 0.72231114 0.190457 0.44215614 0.07150302 0.3896574 0.741603 0.38644335 0.33029416 0.59535575 0.87220454 0.047583193 0.38547042 0.15824074 0.6953542 0.10572456 0.66480774 0.28618088 0.19891681 0.93635255 0.018524576 0.43777728 0.021626992 0.48359305 0.5010474 0.3216625 0.13216178 0.37638754 0.67226297 0.7823958 0.5307506 0.5898344 0.20061637 0.28733033 0.1618956 0.24929535 0.22488678 0.51944876 0.56268877 0.9449474 0.19557065 0.6416757 0.81725925 0.56024146 0.25500366 0.26255023 0.039253052 0.30544424 0.7446037 0.047517758 0.21929528 0.7062325 0.78265154 0.45531842 0.69807434 0.38795218 0.15991324 0.3981495 0.5799678 0.9480533 0.068750955 0.5073941 0.32891977 0.5083117 0.023975447 0.31302536 0.81986815 0.5539417 0.4505825 0.28552508 0.29804254 0.38310143 0.8355707 0.9672132 0.43865538 0.39335284 0.84655076 0.42690533 0.55201817 0.23094167 0.74350256 0.5319883 0.8090345
desert 0.78073275 0.21500477 0.71563554 0.80005443 0.34610724 0.1726091 0.0026321555 0.45090365 0.35243273 0.5549098 0.18804109 0.8596656 0.25775522 0.22642961 0.48071405 0.49885103 0.21508522 0.27186072 0.16970524 0.7184602 0.77008903 0.4623285 0.714087 0.7359354 0.13827553 0.966178 0.8210319 0.20448346 0.18616503 0.12566115 0.13837856 0.7481618 0.46965426 0.7829342 0.7462549 0.6046127 0.6863666 0.018355723 0.31177765 0.63782215 0.009344953 0.032976944 0.851888 0.6840249 0.26536974 0.68796283 0.7924567 0.3067943 0.036037378 0.93277913 0.34517983 0.10648176 0.49185687 0.7684678 0.2216473 0.26949006 0.24271499 0.99167305 0.19740373 0.5755202 0.92526466 0.14689657 0.9708542 0.9474772 0.88457197 0.21455652 0.6340551 0.7608915 0.98602796 0.18042383 0.7660259 0.33880118 0.17562647 0.42137694 0.79383594 0.4648498 0.5375231 0.9951594 0.3991093 0.61540073 0.3652442 0.39278564 0.69564074 0.93788695 0.54235893 0.76839995 0.08920656 0.21115804 0.50213164 0.020011723 0.25285497 0.5174013 0.014961198 0.26454628 0.5140308 0.57314926 0.9257517 0.6453456 0.4147358 0.9303512
island 0.78488296 0.20000891 0.13084236 0.67581165 0.5598832 0.7896736 0.73880506 0.62521154 0.9863822 0.5335897 0.11310576 0.8282736 0.25185338 0.77730215 0.95710707 0.6967955 0.5960302 0.4603862 0.36440986 0.35300475 0.6363727 0.7512731 0.67851704 0.1984101 0.49398717 0.79164004 0.47570407 0.5366233 0.77113605 0.6612653 0.4093449 0.8954127 0.16256706 0.9955164 0.11885258 0.014949971 0.8900189 0.24495351 0.7296996 0.81101537 0.8589864 0.99159425 0.2940397 0.71024334 0.11539986 0.4068093 0.8479717 0.36765805 0.5910954 0.50377345 0.6459515 0.9728944 0.055735525 0.5739615 0.86302876 0.4813827 0.07852718 0.56053936 0.3320739 0.15494178 0.8490345 0.52159953 0.9332764 0.8060165 0.69297177 0.005025503 0.42782345 0.19748628 0.9107979 0.17458399 0.28606007 0.51683676 0.26336363 0.20986468 0.59909934 0.08892952 0.05816776 0.37224528 0.72066444 0.55480677 0.42287648 0.56575155 0.36545148 0.9361463 0.05490489 0.67339146 0.8912827 0.8038847 0.18404104 0.29592636 0.7170479 0.08427056 0.8118617 0.71890694 0.7296066 0.10024137 0.71776056 0.67981815 0.8309225 0.041595954
space 0.02311067 0.3730071 0.14878829 0.5583845 0.9173489 0.39147973 0.8449504 0.00024087452 0.16851464 0.030423539 0.32814717 0.9081896 0.096952125 0.6064098 0.45149595 0.9384682 0.12251914 0.21202785 0.02954197 0.43393525 0.2778329 0.86990595 0.60494083 0.61409074 0.5319107 0.09185034 0.44501868 0.99950516 0.8352293 0.8934591 0.82322633 0.10304169 0.22744825 0.0031216512 0.30351013 0.108607404 0.47279334 0.6771275 0.8745053 0.74921715 0.9385856 0.05389829 0.012179836 0.6613381 0.28935242 0.25350103 0.33088708 0.26979604 0.5114364 0.44014844 0.5124285 0.67271364 0.3871305 0.2513077 0.16620053 0.34947413 0.74180645 0.7567049 0.6669054 0.23402818 0.58808625 0.5706897 0.4842662 0.549979 0.49179062 0.5654564 0.71550596 0.10962819 0.74962574 0.13588615 0.066628 0.9760797 0.9569918 0.060436547 0.44325343 0.18624493 0.4853449 0.83017725 0.95061177 0.63425267 0.35390568 0.60332555 0.31200132 0.90982366 0.8704005 0.5582318 0.3247989 0.29338968 0.033417996 0.8158209 0.45038322 0.32513294 0.47111034 0.818738 0.12461421 0.857656 0.89750886 0.9467079 0.397488 0.2171404
friendship 0.3736408 0.3329121 0.17615391 0.60726666 0.47662416 0.865701 0.03210958 0.6438679 0.7629489 0.75948656 0.88607395 0.72903377 0.9278101 0.3326566 0.5032094 0.014079663 0.0069575873 0.24012662 0.1008072 0.26021138 0.17704329 0.028520025 0.90930414 0.008223131 0.73608214 0.15214789 0.9122296 0.8927959 0.65390116 0.6722342 0.005339142 0.98487157 0.8778326 0.8951062 0.65924454 0.34478694 0.8936486 0.29151693 0.56271154 0.099730976 0.92195565 0.14077047 0.2248968 0.55813414 0.764093 0.6193513 0.23213391 0.0009430425 0.7571506 0.9852073 0.8099131 0.46020663 0.9037673 0.40984768 0.5249341 0.47712976 0.44762388 0.7751908 0.5267689 0.31671712 0.25815818 0.037747316 0.58319515 0.22996141 0.14813392 0.65383 0.68120927 0.7521549 0.5035769 0.8940546 0.9363428 0.80737096 0.6355935 0.30372095 0.9829449 0.27413616 0.20265692 0.4421541 0.056840573 0.97849447 0.58843356 0.5569521 0.6557963 0.49702364 0.032063518 0.6123113 0.7161739 0.41674906 0.75729555 0.2270013 0.2212766 0.16141699 0.37199476 0.84701204 0.82791203 0.3828242 0.5891187 0.7208163 0.24120678 0.16814108
love 0.97209597 0.6175573 0.98141575 0.33775598 0.7030317 0.22260363 0.26120016 0.5119021 0.31961814 0.16762157 0.2628807 0.035748396 0.7044236 0.49211666 0.094243065 0.171694 0.10253454 0.6125928 0.094210364 0.75428236 0.02051092 0.24937579 0.89066666 0.7185313 0.072968334 0.8211261 0.4930351 0.84678304 0.6007398 0.681833 0.99350154 0.23233555 0.6239456 0.4603214 0.039451953 0.0144706415 0.11922858 0.6490917 0.5671631 0.55342954 0.031856764 0.46930298 0.92462283 0.39759186 0.62492245 0.77981865 0.7839253 0.5192801 0.85795194 0.3913781 0.8886932 0.24022716 0.2802164 0.053120624 0.7955818 0.41705525 0.22911662 0.23179027 0.90139997 0.8339166 0.5535309 0.6161108 0.47432557 0.39166653 0.91547686 0.1256127 0.41844678 0.3445619 0.4981507 0.4576319 0.51888955 0.13991898 0.5131415 0.24241881 0.18433134 0.06483422 0.7626526 0.42744192 0.62664366 0.72759336 0.67931664 0.4705007 0.38789853 0.3759599 0.6400488 0.49479437 0.84913224 0.874702 0.17056037 0.13623366 0.63040096 0.30122575 0.01857072 0.88864267 0.22690077 0.92928064 0.71743447 0.76265347 0.2014615 0.23419443
happiness 0.5212678 0.17209986 0.3054317 0.32146248 0.15962993 0.20518284 0.78855187 0.16719586 0.028457392 0.62935495 0.97598314 0.3312138 0.118655704 0.5703873 0.9063542 0.7840618 0.62251586 0.3150565 0.5418802 0.09124484 0.6789454 0.72509605 0.9650316 0.26039734 0.01845642 0.54560846 0.7067905 0.7904075 0.19373894 0.26175287 0.51259094 0.3306008 0.8605115 0.47376016 0.79957867 0.58061975 0.7730901 0.33267298 0.8314166 0.2745723 0.5460988 0.21400711 0.4755265 0.3181752 0.26670343 0.96698505 0.1600741 0.78732586 0.98416495 0.019901484 0.6990274 0.2529118 0.040487826 0.40288958 0.9352178 0.0117650945 0.5878857 0.5013965 0.8733842 0.08400171 0.681526 0.6801097 0.66908 0.9423345 0.8230875 0.041972727 0.47108284 0.39795306 0.31014723 0.4513367 0.3841942 0.4323339 0.9792619 0.08863297 0.9222309 0.4802367 0.6237422 0.83018297 0.36046302 0.43042192 0.40951848 0.37473103 0.9255293 0.8289299 0.10899999 0.108123355 0.42786953 0.09865738 0.6190931 0.14369161 0.52237326 0.007219947 0.31659636 0.6771907 0.48403895 0.97826946 0.8741038 0.35907078 0.045486543 0.8456263
